FANN_FLO_2.1
num_layers=3
learning_rate=0.700000
connection_rate=1.000000
network_type=0
learning_momentum=0.000000
training_algorithm=2
train_error_function=1
train_stop_function=0
cascade_output_change_fraction=0.010000
quickprop_decay=-0.000100
quickprop_mu=1.750000
rprop_increase_factor=1.200000
rprop_decrease_factor=0.500000
rprop_delta_min=0.000000
rprop_delta_max=50.000000
rprop_delta_zero=0.100000
cascade_output_stagnation_epochs=12
cascade_candidate_change_fraction=0.010000
cascade_candidate_stagnation_epochs=12
cascade_max_out_epochs=150
cascade_min_out_epochs=50
cascade_max_cand_epochs=150
cascade_min_cand_epochs=50
cascade_num_candidate_groups=2
bit_fail_limit=3.49999994039535522461e-01
cascade_candidate_limit=1.00000000000000000000e+03
cascade_weight_multiplier=4.00000005960464477539e-01
cascade_activation_functions_count=10
cascade_activation_functions=3 5 7 8 10 11 14 15 16 17 
cascade_activation_steepnesses_count=4
cascade_activation_steepnesses=2.50000000000000000000e-01 5.00000000000000000000e-01 7.50000000000000000000e-01 1.00000000000000000000e+00 
layer_sizes=257 279 37 
scale_included=0
neurons (num_inputs, activation_function, activation_steepness)=(0, 0, 0.00000000000000000000e+00) (0, 0, 0.00000000000000000000e+00) (0, 0, 0.00000000000000000000e+00) (0, 0, 0.00000000000000000000e+00) (0, 0, 0.00000000000000000000e+00) (0, 0, 0.00000000000000000000e+00) (0, 0, 0.00000000000000000000e+00) (0, 0, 0.00000000000000000000e+00) (0, 0, 0.00000000000000000000e+00) (0, 0, 0.00000000000000000000e+00) (0, 0, 0.00000000000000000000e+00) (0, 0, 0.00000000000000000000e+00) (0, 0, 0.00000000000000000000e+00) (0, 0, 0.00000000000000000000e+00) (0, 0, 0.00000000000000000000e+00) (0, 0, 0.00000000000000000000e+00) (0, 0, 0.00000000000000000000e+00) (0, 0, 0.00000000000000000000e+00) (0, 0, 0.00000000000000000000e+00) (0, 0, 0.00000000000000000000e+00) (0, 0, 0.00000000000000000000e+00) (0, 0, 0.00000000000000000000e+00) (0, 0, 0.00000000000000000000e+00) (0, 0, 0.00000000000000000000e+00) (0, 0, 0.00000000000000000000e+00) (0, 0, 0.00000000000000000000e+00) (0, 0, 0.00000000000000000000e+00) (0, 0, 0.00000000000000000000e+00) (0, 0, 0.00000000000000000000e+00) (0, 0, 0.00000000000000000000e+00) (0, 0, 0.00000000000000000000e+00) (0, 0, 0.00000000000000000000e+00) (0, 0, 0.00000000000000000000e+00) (0, 0, 0.00000000000000000000e+00) (0, 0, 0.00000000000000000000e+00) (0, 0, 0.00000000000000000000e+00) (0, 0, 0.00000000000000000000e+00) (0, 0, 0.00000000000000000000e+00) (0, 0, 0.00000000000000000000e+00) (0, 0, 0.00000000000000000000e+00) (0, 0, 0.00000000000000000000e+00) (0, 0, 0.00000000000000000000e+00) (0, 0, 0.00000000000000000000e+00) (0, 0, 0.00000000000000000000e+00) (0, 0, 0.00000000000000000000e+00) (0, 0, 0.00000000000000000000e+00) (0, 0, 0.00000000000000000000e+00) (0, 0, 0.00000000000000000000e+00) (0, 0, 0.00000000000000000000e+00) (0, 0, 0.00000000000000000000e+00) (0, 0, 0.00000000000000000000e+00) (0, 0, 0.00000000000000000000e+00) (0, 0, 0.00000000000000000000e+00) (0, 0, 0.00000000000000000000e+00) (0, 0, 0.00000000000000000000e+00) (0, 0, 0.00000000000000000000e+00) (0, 0, 0.00000000000000000000e+00) (0, 0, 0.00000000000000000000e+00) (0, 0, 0.00000000000000000000e+00) (0, 0, 0.00000000000000000000e+00) (0, 0, 0.00000000000000000000e+00) (0, 0, 0.00000000000000000000e+00) (0, 0, 0.00000000000000000000e+00) (0, 0, 0.00000000000000000000e+00) (0, 0, 0.00000000000000000000e+00) (0, 0, 0.00000000000000000000e+00) (0, 0, 0.00000000000000000000e+00) (0, 0, 0.00000000000000000000e+00) (0, 0, 0.00000000000000000000e+00) (0, 0, 0.00000000000000000000e+00) (0, 0, 0.00000000000000000000e+00) (0, 0, 0.00000000000000000000e+00) (0, 0, 0.00000000000000000000e+00) (0, 0, 0.00000000000000000000e+00) (0, 0, 0.00000000000000000000e+00) (0, 0, 0.00000000000000000000e+00) (0, 0, 0.00000000000000000000e+00) (0, 0, 0.00000000000000000000e+00) (0, 0, 0.00000000000000000000e+00) (0, 0, 0.00000000000000000000e+00) (0, 0, 0.00000000000000000000e+00) (0, 0, 0.00000000000000000000e+00) (0, 0, 0.00000000000000000000e+00) (0, 0, 0.00000000000000000000e+00) (0, 0, 0.00000000000000000000e+00) (0, 0, 0.00000000000000000000e+00) (0, 0, 0.00000000000000000000e+00) (0, 0, 0.00000000000000000000e+00) (0, 0, 0.00000000000000000000e+00) (0, 0, 0.00000000000000000000e+00) (0, 0, 0.00000000000000000000e+00) (0, 0, 0.00000000000000000000e+00) (0, 0, 0.00000000000000000000e+00) (0, 0, 0.00000000000000000000e+00) (0, 0, 0.00000000000000000000e+00) (0, 0, 0.00000000000000000000e+00) (0, 0, 0.00000000000000000000e+00) (0, 0, 0.00000000000000000000e+00) (0, 0, 0.00000000000000000000e+00) (0, 0, 0.00000000000000000000e+00) (0, 0, 0.00000000000000000000e+00) (0, 0, 0.00000000000000000000e+00) (0, 0, 0.00000000000000000000e+00) (0, 0, 0.00000000000000000000e+00) (0, 0, 0.00000000000000000000e+00) (0, 0, 0.00000000000000000000e+00) (0, 0, 0.00000000000000000000e+00) (0, 0, 0.00000000000000000000e+00) (0, 0, 0.00000000000000000000e+00) (0, 0, 0.00000000000000000000e+00) (0, 0, 0.00000000000000000000e+00) (0, 0, 0.00000000000000000000e+00) (0, 0, 0.00000000000000000000e+00) (0, 0, 0.00000000000000000000e+00) (0, 0, 0.00000000000000000000e+00) (0, 0, 0.00000000000000000000e+00) (0, 0, 0.00000000000000000000e+00) (0, 0, 0.00000000000000000000e+00) (0, 0, 0.00000000000000000000e+00) (0, 0, 0.00000000000000000000e+00) (0, 0, 0.00000000000000000000e+00) (0, 0, 0.00000000000000000000e+00) (0, 0, 0.00000000000000000000e+00) (0, 0, 0.00000000000000000000e+00) (0, 0, 0.00000000000000000000e+00) (0, 0, 0.00000000000000000000e+00) (0, 0, 0.00000000000000000000e+00) (0, 0, 0.00000000000000000000e+00) (0, 0, 0.00000000000000000000e+00) (0, 0, 0.00000000000000000000e+00) (0, 0, 0.00000000000000000000e+00) (0, 0, 0.00000000000000000000e+00) (0, 0, 0.00000000000000000000e+00) (0, 0, 0.00000000000000000000e+00) (0, 0, 0.00000000000000000000e+00) (0, 0, 0.00000000000000000000e+00) (0, 0, 0.00000000000000000000e+00) (0, 0, 0.00000000000000000000e+00) (0, 0, 0.00000000000000000000e+00) (0, 0, 0.00000000000000000000e+00) (0, 0, 0.00000000000000000000e+00) (0, 0, 0.00000000000000000000e+00) (0, 0, 0.00000000000000000000e+00) (0, 0, 0.00000000000000000000e+00) (0, 0, 0.00000000000000000000e+00) (0, 0, 0.00000000000000000000e+00) (0, 0, 0.00000000000000000000e+00) (0, 0, 0.00000000000000000000e+00) (0, 0, 0.00000000000000000000e+00) (0, 0, 0.00000000000000000000e+00) (0, 0, 0.00000000000000000000e+00) (0, 0, 0.00000000000000000000e+00) (0, 0, 0.00000000000000000000e+00) (0, 0, 0.00000000000000000000e+00) (0, 0, 0.00000000000000000000e+00) (0, 0, 0.00000000000000000000e+00) (0, 0, 0.00000000000000000000e+00) (0, 0, 0.00000000000000000000e+00) (0, 0, 0.00000000000000000000e+00) (0, 0, 0.00000000000000000000e+00) (0, 0, 0.00000000000000000000e+00) (0, 0, 0.00000000000000000000e+00) (0, 0, 0.00000000000000000000e+00) (0, 0, 0.00000000000000000000e+00) (0, 0, 0.00000000000000000000e+00) (0, 0, 0.00000000000000000000e+00) (0, 0, 0.00000000000000000000e+00) (0, 0, 0.00000000000000000000e+00) (0, 0, 0.00000000000000000000e+00) (0, 0, 0.00000000000000000000e+00) (0, 0, 0.00000000000000000000e+00) (0, 0, 0.00000000000000000000e+00) (0, 0, 0.00000000000000000000e+00) (0, 0, 0.00000000000000000000e+00) (0, 0, 0.00000000000000000000e+00) (0, 0, 0.00000000000000000000e+00) (0, 0, 0.00000000000000000000e+00) (0, 0, 0.00000000000000000000e+00) (0, 0, 0.00000000000000000000e+00) (0, 0, 0.00000000000000000000e+00) (0, 0, 0.00000000000000000000e+00) (0, 0, 0.00000000000000000000e+00) (0, 0, 0.00000000000000000000e+00) (0, 0, 0.00000000000000000000e+00) (0, 0, 0.00000000000000000000e+00) (0, 0, 0.00000000000000000000e+00) (0, 0, 0.00000000000000000000e+00) (0, 0, 0.00000000000000000000e+00) (0, 0, 0.00000000000000000000e+00) (0, 0, 0.00000000000000000000e+00) (0, 0, 0.00000000000000000000e+00) (0, 0, 0.00000000000000000000e+00) (0, 0, 0.00000000000000000000e+00) (0, 0, 0.00000000000000000000e+00) (0, 0, 0.00000000000000000000e+00) (0, 0, 0.00000000000000000000e+00) (0, 0, 0.00000000000000000000e+00) (0, 0, 0.00000000000000000000e+00) (0, 0, 0.00000000000000000000e+00) (0, 0, 0.00000000000000000000e+00) (0, 0, 0.00000000000000000000e+00) (0, 0, 0.00000000000000000000e+00) (0, 0, 0.00000000000000000000e+00) (0, 0, 0.00000000000000000000e+00) (0, 0, 0.00000000000000000000e+00) (0, 0, 0.00000000000000000000e+00) (0, 0, 0.00000000000000000000e+00) (0, 0, 0.00000000000000000000e+00) (0, 0, 0.00000000000000000000e+00) (0, 0, 0.00000000000000000000e+00) (0, 0, 0.00000000000000000000e+00) (0, 0, 0.00000000000000000000e+00) (0, 0, 0.00000000000000000000e+00) (0, 0, 0.00000000000000000000e+00) (0, 0, 0.00000000000000000000e+00) (0, 0, 0.00000000000000000000e+00) (0, 0, 0.00000000000000000000e+00) (0, 0, 0.00000000000000000000e+00) (0, 0, 0.00000000000000000000e+00) (0, 0, 0.00000000000000000000e+00) (0, 0, 0.00000000000000000000e+00) (0, 0, 0.00000000000000000000e+00) (0, 0, 0.00000000000000000000e+00) (0, 0, 0.00000000000000000000e+00) (0, 0, 0.00000000000000000000e+00) (0, 0, 0.00000000000000000000e+00) (0, 0, 0.00000000000000000000e+00) (0, 0, 0.00000000000000000000e+00) (0, 0, 0.00000000000000000000e+00) (0, 0, 0.00000000000000000000e+00) (0, 0, 0.00000000000000000000e+00) (0, 0, 0.00000000000000000000e+00) (0, 0, 0.00000000000000000000e+00) (0, 0, 0.00000000000000000000e+00) (0, 0, 0.00000000000000000000e+00) (0, 0, 0.00000000000000000000e+00) (0, 0, 0.00000000000000000000e+00) (0, 0, 0.00000000000000000000e+00) (0, 0, 0.00000000000000000000e+00) (0, 0, 0.00000000000000000000e+00) (0, 0, 0.00000000000000000000e+00) (0, 0, 0.00000000000000000000e+00) (0, 0, 0.00000000000000000000e+00) (0, 0, 0.00000000000000000000e+00) (0, 0, 0.00000000000000000000e+00) (0, 0, 0.00000000000000000000e+00) (0, 0, 0.00000000000000000000e+00) (0, 0, 0.00000000000000000000e+00) (0, 0, 0.00000000000000000000e+00) (0, 0, 0.00000000000000000000e+00) (0, 0, 0.00000000000000000000e+00) (0, 0, 0.00000000000000000000e+00) (0, 0, 0.00000000000000000000e+00) (0, 0, 0.00000000000000000000e+00) (0, 0, 0.00000000000000000000e+00) (0, 0, 0.00000000000000000000e+00) (0, 0, 0.00000000000000000000e+00) (257, 5, 5.00000000000000000000e-01) (257, 5, 5.00000000000000000000e-01) (257, 5, 5.00000000000000000000e-01) (257, 5, 5.00000000000000000000e-01) (257, 5, 5.00000000000000000000e-01) (257, 5, 5.00000000000000000000e-01) (257, 5, 5.00000000000000000000e-01) (257, 5, 5.00000000000000000000e-01) (257, 5, 5.00000000000000000000e-01) (257, 5, 5.00000000000000000000e-01) (257, 5, 5.00000000000000000000e-01) (257, 5, 5.00000000000000000000e-01) (257, 5, 5.00000000000000000000e-01) (257, 5, 5.00000000000000000000e-01) (257, 5, 5.00000000000000000000e-01) (257, 5, 5.00000000000000000000e-01) (257, 5, 5.00000000000000000000e-01) (257, 5, 5.00000000000000000000e-01) (257, 5, 5.00000000000000000000e-01) (257, 5, 5.00000000000000000000e-01) (257, 5, 5.00000000000000000000e-01) (257, 5, 5.00000000000000000000e-01) (257, 5, 5.00000000000000000000e-01) (257, 5, 5.00000000000000000000e-01) (257, 5, 5.00000000000000000000e-01) (257, 5, 5.00000000000000000000e-01) (257, 5, 5.00000000000000000000e-01) (257, 5, 5.00000000000000000000e-01) (257, 5, 5.00000000000000000000e-01) (257, 5, 5.00000000000000000000e-01) (257, 5, 5.00000000000000000000e-01) (257, 5, 5.00000000000000000000e-01) (257, 5, 5.00000000000000000000e-01) (257, 5, 5.00000000000000000000e-01) (257, 5, 5.00000000000000000000e-01) (257, 5, 5.00000000000000000000e-01) (257, 5, 5.00000000000000000000e-01) (257, 5, 5.00000000000000000000e-01) (257, 5, 5.00000000000000000000e-01) (257, 5, 5.00000000000000000000e-01) (257, 5, 5.00000000000000000000e-01) (257, 5, 5.00000000000000000000e-01) (257, 5, 5.00000000000000000000e-01) (257, 5, 5.00000000000000000000e-01) (257, 5, 5.00000000000000000000e-01) (257, 5, 5.00000000000000000000e-01) (257, 5, 5.00000000000000000000e-01) (257, 5, 5.00000000000000000000e-01) (257, 5, 5.00000000000000000000e-01) (257, 5, 5.00000000000000000000e-01) (257, 5, 5.00000000000000000000e-01) (257, 5, 5.00000000000000000000e-01) (257, 5, 5.00000000000000000000e-01) (257, 5, 5.00000000000000000000e-01) (257, 5, 5.00000000000000000000e-01) (257, 5, 5.00000000000000000000e-01) (257, 5, 5.00000000000000000000e-01) (257, 5, 5.00000000000000000000e-01) (257, 5, 5.00000000000000000000e-01) (257, 5, 5.00000000000000000000e-01) (257, 5, 5.00000000000000000000e-01) (257, 5, 5.00000000000000000000e-01) (257, 5, 5.00000000000000000000e-01) (257, 5, 5.00000000000000000000e-01) (257, 5, 5.00000000000000000000e-01) (257, 5, 5.00000000000000000000e-01) (257, 5, 5.00000000000000000000e-01) (257, 5, 5.00000000000000000000e-01) (257, 5, 5.00000000000000000000e-01) (257, 5, 5.00000000000000000000e-01) (257, 5, 5.00000000000000000000e-01) (257, 5, 5.00000000000000000000e-01) (257, 5, 5.00000000000000000000e-01) (257, 5, 5.00000000000000000000e-01) (257, 5, 5.00000000000000000000e-01) (257, 5, 5.00000000000000000000e-01) (257, 5, 5.00000000000000000000e-01) (257, 5, 5.00000000000000000000e-01) (257, 5, 5.00000000000000000000e-01) (257, 5, 5.00000000000000000000e-01) (257, 5, 5.00000000000000000000e-01) (257, 5, 5.00000000000000000000e-01) (257, 5, 5.00000000000000000000e-01) (257, 5, 5.00000000000000000000e-01) (257, 5, 5.00000000000000000000e-01) (257, 5, 5.00000000000000000000e-01) (257, 5, 5.00000000000000000000e-01) (257, 5, 5.00000000000000000000e-01) (257, 5, 5.00000000000000000000e-01) (257, 5, 5.00000000000000000000e-01) (257, 5, 5.00000000000000000000e-01) (257, 5, 5.00000000000000000000e-01) (257, 5, 5.00000000000000000000e-01) (257, 5, 5.00000000000000000000e-01) (257, 5, 5.00000000000000000000e-01) (257, 5, 5.00000000000000000000e-01) (257, 5, 5.00000000000000000000e-01) (257, 5, 5.00000000000000000000e-01) (257, 5, 5.00000000000000000000e-01) (257, 5, 5.00000000000000000000e-01) (257, 5, 5.00000000000000000000e-01) (257, 5, 5.00000000000000000000e-01) (257, 5, 5.00000000000000000000e-01) (257, 5, 5.00000000000000000000e-01) (257, 5, 5.00000000000000000000e-01) (257, 5, 5.00000000000000000000e-01) (257, 5, 5.00000000000000000000e-01) (257, 5, 5.00000000000000000000e-01) (257, 5, 5.00000000000000000000e-01) (257, 5, 5.00000000000000000000e-01) (257, 5, 5.00000000000000000000e-01) (257, 5, 5.00000000000000000000e-01) (257, 5, 5.00000000000000000000e-01) (257, 5, 5.00000000000000000000e-01) (257, 5, 5.00000000000000000000e-01) (257, 5, 5.00000000000000000000e-01) (257, 5, 5.00000000000000000000e-01) (257, 5, 5.00000000000000000000e-01) (257, 5, 5.00000000000000000000e-01) (257, 5, 5.00000000000000000000e-01) (257, 5, 5.00000000000000000000e-01) (257, 5, 5.00000000000000000000e-01) (257, 5, 5.00000000000000000000e-01) (257, 5, 5.00000000000000000000e-01) (257, 5, 5.00000000000000000000e-01) (257, 5, 5.00000000000000000000e-01) (257, 5, 5.00000000000000000000e-01) (257, 5, 5.00000000000000000000e-01) (257, 5, 5.00000000000000000000e-01) (257, 5, 5.00000000000000000000e-01) (257, 5, 5.00000000000000000000e-01) (257, 5, 5.00000000000000000000e-01) (257, 5, 5.00000000000000000000e-01) (257, 5, 5.00000000000000000000e-01) (257, 5, 5.00000000000000000000e-01) (257, 5, 5.00000000000000000000e-01) (257, 5, 5.00000000000000000000e-01) (257, 5, 5.00000000000000000000e-01) (257, 5, 5.00000000000000000000e-01) (257, 5, 5.00000000000000000000e-01) (257, 5, 5.00000000000000000000e-01) (257, 5, 5.00000000000000000000e-01) (257, 5, 5.00000000000000000000e-01) (257, 5, 5.00000000000000000000e-01) (257, 5, 5.00000000000000000000e-01) (257, 5, 5.00000000000000000000e-01) (257, 5, 5.00000000000000000000e-01) (257, 5, 5.00000000000000000000e-01) (257, 5, 5.00000000000000000000e-01) (257, 5, 5.00000000000000000000e-01) (257, 5, 5.00000000000000000000e-01) (257, 5, 5.00000000000000000000e-01) (257, 5, 5.00000000000000000000e-01) (257, 5, 5.00000000000000000000e-01) (257, 5, 5.00000000000000000000e-01) (257, 5, 5.00000000000000000000e-01) (257, 5, 5.00000000000000000000e-01) (257, 5, 5.00000000000000000000e-01) (257, 5, 5.00000000000000000000e-01) (257, 5, 5.00000000000000000000e-01) (257, 5, 5.00000000000000000000e-01) (257, 5, 5.00000000000000000000e-01) (257, 5, 5.00000000000000000000e-01) (257, 5, 5.00000000000000000000e-01) (257, 5, 5.00000000000000000000e-01) (257, 5, 5.00000000000000000000e-01) (257, 5, 5.00000000000000000000e-01) (257, 5, 5.00000000000000000000e-01) (257, 5, 5.00000000000000000000e-01) (257, 5, 5.00000000000000000000e-01) (257, 5, 5.00000000000000000000e-01) (257, 5, 5.00000000000000000000e-01) (257, 5, 5.00000000000000000000e-01) (257, 5, 5.00000000000000000000e-01) (257, 5, 5.00000000000000000000e-01) (257, 5, 5.00000000000000000000e-01) (257, 5, 5.00000000000000000000e-01) (257, 5, 5.00000000000000000000e-01) (257, 5, 5.00000000000000000000e-01) (257, 5, 5.00000000000000000000e-01) (257, 5, 5.00000000000000000000e-01) (257, 5, 5.00000000000000000000e-01) (257, 5, 5.00000000000000000000e-01) (257, 5, 5.00000000000000000000e-01) (257, 5, 5.00000000000000000000e-01) (257, 5, 5.00000000000000000000e-01) (257, 5, 5.00000000000000000000e-01) (257, 5, 5.00000000000000000000e-01) (257, 5, 5.00000000000000000000e-01) (257, 5, 5.00000000000000000000e-01) (257, 5, 5.00000000000000000000e-01) (257, 5, 5.00000000000000000000e-01) (257, 5, 5.00000000000000000000e-01) (257, 5, 5.00000000000000000000e-01) (257, 5, 5.00000000000000000000e-01) (257, 5, 5.00000000000000000000e-01) (257, 5, 5.00000000000000000000e-01) (257, 5, 5.00000000000000000000e-01) (257, 5, 5.00000000000000000000e-01) (257, 5, 5.00000000000000000000e-01) (257, 5, 5.00000000000000000000e-01) (257, 5, 5.00000000000000000000e-01) (257, 5, 5.00000000000000000000e-01) (257, 5, 5.00000000000000000000e-01) (257, 5, 5.00000000000000000000e-01) (257, 5, 5.00000000000000000000e-01) (257, 5, 5.00000000000000000000e-01) (257, 5, 5.00000000000000000000e-01) (257, 5, 5.00000000000000000000e-01) (257, 5, 5.00000000000000000000e-01) (257, 5, 5.00000000000000000000e-01) (257, 5, 5.00000000000000000000e-01) (257, 5, 5.00000000000000000000e-01) (257, 5, 5.00000000000000000000e-01) (257, 5, 5.00000000000000000000e-01) (257, 5, 5.00000000000000000000e-01) (257, 5, 5.00000000000000000000e-01) (257, 5, 5.00000000000000000000e-01) (257, 5, 5.00000000000000000000e-01) (257, 5, 5.00000000000000000000e-01) (257, 5, 5.00000000000000000000e-01) (257, 5, 5.00000000000000000000e-01) (257, 5, 5.00000000000000000000e-01) (257, 5, 5.00000000000000000000e-01) (257, 5, 5.00000000000000000000e-01) (257, 5, 5.00000000000000000000e-01) (257, 5, 5.00000000000000000000e-01) (257, 5, 5.00000000000000000000e-01) (257, 5, 5.00000000000000000000e-01) (257, 5, 5.00000000000000000000e-01) (257, 5, 5.00000000000000000000e-01) (257, 5, 5.00000000000000000000e-01) (257, 5, 5.00000000000000000000e-01) (257, 5, 5.00000000000000000000e-01) (257, 5, 5.00000000000000000000e-01) (257, 5, 5.00000000000000000000e-01) (257, 5, 5.00000000000000000000e-01) (257, 5, 5.00000000000000000000e-01) (257, 5, 5.00000000000000000000e-01) (257, 5, 5.00000000000000000000e-01) (257, 5, 5.00000000000000000000e-01) (257, 5, 5.00000000000000000000e-01) (257, 5, 5.00000000000000000000e-01) (257, 5, 5.00000000000000000000e-01) (257, 5, 5.00000000000000000000e-01) (257, 5, 5.00000000000000000000e-01) (257, 5, 5.00000000000000000000e-01) (257, 5, 5.00000000000000000000e-01) (257, 5, 5.00000000000000000000e-01) (257, 5, 5.00000000000000000000e-01) (257, 5, 5.00000000000000000000e-01) (257, 5, 5.00000000000000000000e-01) (257, 5, 5.00000000000000000000e-01) (257, 5, 5.00000000000000000000e-01) (257, 5, 5.00000000000000000000e-01) (257, 5, 5.00000000000000000000e-01) (257, 5, 5.00000000000000000000e-01) (257, 5, 5.00000000000000000000e-01) (257, 5, 5.00000000000000000000e-01) (257, 5, 5.00000000000000000000e-01) (257, 5, 5.00000000000000000000e-01) (257, 5, 5.00000000000000000000e-01) (257, 5, 5.00000000000000000000e-01) (257, 5, 5.00000000000000000000e-01) (257, 5, 5.00000000000000000000e-01) (257, 5, 5.00000000000000000000e-01) (257, 5, 5.00000000000000000000e-01) (257, 5, 5.00000000000000000000e-01) (257, 5, 5.00000000000000000000e-01) (257, 5, 5.00000000000000000000e-01) (257, 5, 5.00000000000000000000e-01) (257, 5, 5.00000000000000000000e-01) (257, 5, 5.00000000000000000000e-01) (257, 5, 5.00000000000000000000e-01) (257, 5, 5.00000000000000000000e-01) (257, 5, 5.00000000000000000000e-01) (257, 5, 5.00000000000000000000e-01) (257, 5, 5.00000000000000000000e-01) (0, 5, 0.00000000000000000000e+00) (279, 5, 5.00000000000000000000e-01) (279, 5, 5.00000000000000000000e-01) (279, 5, 5.00000000000000000000e-01) (279, 5, 5.00000000000000000000e-01) (279, 5, 5.00000000000000000000e-01) (279, 5, 5.00000000000000000000e-01) (279, 5, 5.00000000000000000000e-01) (279, 5, 5.00000000000000000000e-01) (279, 5, 5.00000000000000000000e-01) (279, 5, 5.00000000000000000000e-01) (279, 5, 5.00000000000000000000e-01) (279, 5, 5.00000000000000000000e-01) (279, 5, 5.00000000000000000000e-01) (279, 5, 5.00000000000000000000e-01) (279, 5, 5.00000000000000000000e-01) (279, 5, 5.00000000000000000000e-01) (279, 5, 5.00000000000000000000e-01) (279, 5, 5.00000000000000000000e-01) (279, 5, 5.00000000000000000000e-01) (279, 5, 5.00000000000000000000e-01) (279, 5, 5.00000000000000000000e-01) (279, 5, 5.00000000000000000000e-01) (279, 5, 5.00000000000000000000e-01) (279, 5, 5.00000000000000000000e-01) (279, 5, 5.00000000000000000000e-01) (279, 5, 5.00000000000000000000e-01) (279, 5, 5.00000000000000000000e-01) (279, 5, 5.00000000000000000000e-01) (279, 5, 5.00000000000000000000e-01) (279, 5, 5.00000000000000000000e-01) (279, 5, 5.00000000000000000000e-01) (279, 5, 5.00000000000000000000e-01) (279, 5, 5.00000000000000000000e-01) (279, 5, 5.00000000000000000000e-01) (279, 5, 5.00000000000000000000e-01) (279, 5, 5.00000000000000000000e-01) (0, 5, 0.00000000000000000000e+00) 
connections (connected_to_neuron, weight)=(0, 1.50000000000000000000e+03) (1, 1.50000000000000000000e+03) (2, 1.50000000000000000000e+03) (3, 1.50000000000000000000e+03) (4, 1.50000000000000000000e+03) (5, 1.50000000000000000000e+03) (6, 1.50000000000000000000e+03) (7, 1.50000000000000000000e+03) (8, 1.50000000000000000000e+03) (9, 1.50000000000000000000e+03) (10, 1.50000000000000000000e+03) (11, 1.50000000000000000000e+03) (12, 1.50000000000000000000e+03) (13, 1.50000000000000000000e+03) (14, 1.50000000000000000000e+03) (15, 1.50000000000000000000e+03) (16, 1.50000000000000000000e+03) (17, 1.50000000000000000000e+03) (18, 1.50000000000000000000e+03) (19, 1.50000000000000000000e+03) (20, 1.50000000000000000000e+03) (21, 1.50000000000000000000e+03) (22, 1.50000000000000000000e+03) (23, 1.50000000000000000000e+03) (24, 1.50000000000000000000e+03) (25, 1.50000000000000000000e+03) (26, 1.50000000000000000000e+03) (27, 1.50000000000000000000e+03) (28, 1.50000000000000000000e+03) (29, 1.50000000000000000000e+03) (30, 1.50000000000000000000e+03) (31, 1.50000000000000000000e+03) (32, 1.50000000000000000000e+03) (33, 1.50000000000000000000e+03) (34, 1.50000000000000000000e+03) (35, -1.50000000000000000000e+03) (36, 1.50000000000000000000e+03) (37, 1.50000000000000000000e+03) (38, -2.50090575218200683594e+00) (39, 3.35436172485351562500e+01) (40, 5.71052908897399902344e-01) (41, 1.38529510498046875000e+01) (42, 2.33747406005859375000e+02) (43, 1.50000000000000000000e+03) (44, 1.50000000000000000000e+03) (45, 1.50000000000000000000e+03) (46, 1.50000000000000000000e+03) (47, 1.50000000000000000000e+03) (48, 1.50000000000000000000e+03) (49, 1.50000000000000000000e+03) (50, 1.50000000000000000000e+03) (51, 1.49998034667968750000e+03) (52, -4.72298383712768554688e-01) (53, 4.65288668870925903320e-01) (54, -1.42273485660552978516e+00) (55, 4.15573239326477050781e-01) (56, 6.12611234188079833984e-01) (57, 3.30713540315628051758e-01) (58, -9.70595538616180419922e-01) (59, 2.86930441856384277344e-01) (60, 1.49431140136718750000e+03) (61, 1.50000000000000000000e+03) (62, 1.50000000000000000000e+03) (63, 1.50000000000000000000e+03) (64, 1.50000000000000000000e+03) (65, 1.50000000000000000000e+03) (66, 1.50000000000000000000e+03) (67, 1.49893737792968750000e+03) (68, -4.08050441741943359375e+00) (69, 2.94534742832183837891e-01) (70, 2.20510885119438171387e-02) (71, 2.64661639928817749023e-01) (72, 5.32433986663818359375e-01) (73, 3.51879149675369262695e-01) (74, 1.29818813875317573547e-02) (75, -1.10486656427383422852e-01) (76, 1.49894323730468750000e+03) (77, 1.50000000000000000000e+03) (78, 1.50000000000000000000e+03) (79, 1.50000000000000000000e+03) (80, 1.50000000000000000000e+03) (81, 1.50000000000000000000e+03) (82, 1.50000000000000000000e+03) (83, 1.49999987792968750000e+03) (84, 1.00095048546791076660e-01) (85, 1.45377561450004577637e-01) (86, -2.24141740798950195312e+00) (87, 5.81402719020843505859e-01) (88, 5.25603055953979492188e-01) (89, -2.31454651802778244019e-02) (90, 1.56089723110198974609e-01) (91, -1.97404474020004272461e-01) (92, 9.46680541992187500000e+02) (93, 1.50000000000000000000e+03) (94, 1.50000000000000000000e+03) (95, 1.50000000000000000000e+03) (96, 1.50000000000000000000e+03) (97, 1.50000000000000000000e+03) (98, 1.50000000000000000000e+03) (99, 1.49990039062500000000e+03) (100, 5.08730053901672363281e-01) (101, 4.20408487319946289062e-01) (102, 4.58342671394348144531e-01) (103, 3.95037502050399780273e-01) (104, 3.23769390583038330078e-01) (105, 8.92270132899284362793e-02) (106, 3.39351207017898559570e-01) (107, -1.61167621612548828125e-01) (108, 1.49999890136718750000e+03) (109, 1.50000000000000000000e+03) (110, 1.50000000000000000000e+03) (111, 1.50000000000000000000e+03) (112, 1.50000000000000000000e+03) (113, 1.50000000000000000000e+03) (114, 1.50000000000000000000e+03) (115, 1.49999841308593750000e+03) (116, 6.82488083839416503906e-01) (117, 3.02181750535964965820e-01) (118, 4.50801640748977661133e-01) (119, 1.45785376429557800293e-01) (120, -3.32513034343719482422e-01) (121, 2.58368909358978271484e-01) (122, 1.28653362393379211426e-01) (123, 2.74935159832239151001e-02) (124, 1.97473220825195312500e+01) (125, 1.50000000000000000000e+03) (126, 1.50000000000000000000e+03) (127, 1.50000000000000000000e+03) (128, 1.50000000000000000000e+03) (129, 1.50000000000000000000e+03) (130, 1.50000000000000000000e+03) (131, 1.49990258789062500000e+03) (132, 8.18299591541290283203e-01) (133, 1.59733057022094726562e-01) (134, 3.26264798641204833984e-01) (135, 5.15804052352905273438e-01) (136, 3.08000832796096801758e-01) (137, 2.62517899274826049805e-01) (138, 4.12040114402770996094e-01) (139, 2.82403260469436645508e-01) (140, -1.79745956420898437500e+02) (141, 1.50000000000000000000e+03) (142, 1.50000000000000000000e+03) (143, 1.50000000000000000000e+03) (144, 1.50000000000000000000e+03) (145, 1.50000000000000000000e+03) (146, 1.50000000000000000000e+03) (147, 9.42957818508148193359e-01) (148, -9.57741066813468933105e-02) (149, -8.17996382713317871094e-01) (150, 1.49134427309036254883e-01) (151, 6.28727674484252929688e-01) (152, 3.47009181976318359375e-01) (153, 1.58233612775802612305e-01) (154, 3.16977471113204956055e-01) (155, 1.81871250271797180176e-01) (156, -1.45841723632812500000e+03) (157, 1.50000000000000000000e+03) (158, 1.50000000000000000000e+03) (159, 1.50000000000000000000e+03) (160, 1.50000000000000000000e+03) (161, 1.50000000000000000000e+03) (162, 1.50000000000000000000e+03) (163, -5.34064006805419921875e+00) (164, -9.42360088229179382324e-02) (165, 4.14879679679870605469e-01) (166, 1.37775897979736328125e-01) (167, 2.91939884424209594727e-01) (168, 1.81696623563766479492e-01) (169, 5.03201425075531005859e-01) (170, 2.10857108235359191895e-01) (171, 2.10700090974569320679e-02) (172, -5.89147705078125000000e+02) (173, 1.50000000000000000000e+03) (174, 1.50000000000000000000e+03) (175, 1.50000000000000000000e+03) (176, 1.50000000000000000000e+03) (177, 1.50000000000000000000e+03) (178, 1.50000000000000000000e+03) (179, 3.69417905807495117188e+00) (180, -6.87918305397033691406e-01) (181, 3.33395600318908691406e-01) (182, 3.42690438032150268555e-01) (183, -6.41516149044036865234e-01) (184, 4.42061334848403930664e-01) (185, 4.89247411489486694336e-01) (186, 2.40756750106811523438e-01) (187, 2.65010535717010498047e-01) (188, 1.49992077636718750000e+03) (189, 1.50000000000000000000e+03) (190, 1.50000000000000000000e+03) (191, 1.50000000000000000000e+03) (192, 1.50000000000000000000e+03) (193, 1.50000000000000000000e+03) (194, 1.50000000000000000000e+03) (195, 1.49999987792968750000e+03) (196, 2.30525159835815429688e+00) (197, -1.25599861145019531250e-01) (198, 1.49986645507812500000e+03) (199, 8.47691297531127929688e-01) (200, 4.79877024888992309570e-01) (201, -4.56159502267837524414e-01) (202, 2.93786823749542236328e-01) (203, -2.80532598495483398438e+00) (204, 1.49812023925781250000e+03) (205, 1.50000000000000000000e+03) (206, 1.50000000000000000000e+03) (207, 1.50000000000000000000e+03) (208, 1.50000000000000000000e+03) (209, 1.50000000000000000000e+03) (210, 1.50000000000000000000e+03) (211, 1.50000000000000000000e+03) (212, 1.50000000000000000000e+03) (213, 1.50000000000000000000e+03) (214, 1.49391638183593750000e+03) (215, -5.50359802246093750000e+01) (216, 7.37076818943023681641e-01) (217, 1.48746972656250000000e+03) (218, 1.49968054199218750000e+03) (219, 1.49999938964843750000e+03) (220, 1.50000000000000000000e+03) (221, 1.50000000000000000000e+03) (222, 1.50000000000000000000e+03) (223, 1.50000000000000000000e+03) (224, 1.50000000000000000000e+03) (225, 1.50000000000000000000e+03) (226, 1.50000000000000000000e+03) (227, 1.50000000000000000000e+03) (228, 1.50000000000000000000e+03) (229, 1.50000000000000000000e+03) (230, 1.50000000000000000000e+03) (231, 1.50000000000000000000e+03) (232, 1.50000000000000000000e+03) (233, 1.50000000000000000000e+03) (234, 1.50000000000000000000e+03) (235, 1.50000000000000000000e+03) (236, 1.50000000000000000000e+03) (237, 1.50000000000000000000e+03) (238, 1.50000000000000000000e+03) (239, 1.50000000000000000000e+03) (240, 1.50000000000000000000e+03) (241, 1.50000000000000000000e+03) (242, 1.50000000000000000000e+03) (243, 1.50000000000000000000e+03) (244, 1.50000000000000000000e+03) (245, 1.50000000000000000000e+03) (246, 1.50000000000000000000e+03) (247, 1.50000000000000000000e+03) (248, 1.50000000000000000000e+03) (249, 1.50000000000000000000e+03) (250, 1.50000000000000000000e+03) (251, 1.50000000000000000000e+03) (252, 1.50000000000000000000e+03) (253, 1.50000000000000000000e+03) (254, 1.50000000000000000000e+03) (255, 1.50000000000000000000e+03) (256, 4.85122591257095336914e-01) (0, 1.50000000000000000000e+03) (1, 1.50000000000000000000e+03) (2, 1.50000000000000000000e+03) (3, 1.50000000000000000000e+03) (4, 1.50000000000000000000e+03) (5, 1.50000000000000000000e+03) (6, 1.50000000000000000000e+03) (7, 1.50000000000000000000e+03) (8, 1.50000000000000000000e+03) (9, 1.50000000000000000000e+03) (10, 1.50000000000000000000e+03) (11, 1.50000000000000000000e+03) (12, 1.50000000000000000000e+03) (13, 1.50000000000000000000e+03) (14, 1.50000000000000000000e+03) (15, 1.50000000000000000000e+03) (16, 1.50000000000000000000e+03) (17, 1.50000000000000000000e+03) (18, 1.50000000000000000000e+03) (19, 1.50000000000000000000e+03) (20, 1.50000000000000000000e+03) (21, 1.50000000000000000000e+03) (22, 1.50000000000000000000e+03) (23, 1.50000000000000000000e+03) (24, 1.50000000000000000000e+03) (25, 1.50000000000000000000e+03) (26, 1.50000000000000000000e+03) (27, 1.50000000000000000000e+03) (28, 1.50000000000000000000e+03) (29, 1.50000000000000000000e+03) (30, 1.50000000000000000000e+03) (31, 1.50000000000000000000e+03) (32, 1.50000000000000000000e+03) (33, 1.50000000000000000000e+03) (34, 1.50000000000000000000e+03) (35, 1.47174487304687500000e+03) (36, 1.50000000000000000000e+03) (37, 1.50000000000000000000e+03) (38, -2.55733566284179687500e+02) (39, -3.08326196670532226562e+00) (40, 3.86764740943908691406e+00) (41, 1.48482055664062500000e+03) (42, 1.08802880859375000000e+03) (43, 1.50000000000000000000e+03) (44, 1.50000000000000000000e+03) (45, 1.50000000000000000000e+03) (46, 1.50000000000000000000e+03) (47, 1.50000000000000000000e+03) (48, 1.50000000000000000000e+03) (49, 1.50000000000000000000e+03) (50, 1.50000000000000000000e+03) (51, 5.46606123447418212891e-01) (52, 7.93023109436035156250e-01) (53, -7.93703496456146240234e-02) (54, -6.99465513229370117188e-01) (55, 1.41867175698280334473e-01) (56, -8.95558521151542663574e-02) (57, -9.09500643610954284668e-02) (58, 9.85727691650390625000e+00) (59, -2.91279625892639160156e+00) (60, 2.01272781372070312500e+02) (61, 1.50000000000000000000e+03) (62, 1.50000000000000000000e+03) (63, 1.50000000000000000000e+03) (64, 1.50000000000000000000e+03) (65, 1.50000000000000000000e+03) (66, 1.50000000000000000000e+03) (67, 9.73085165023803710938e-01) (68, -6.19904422760009765625e+00) (69, -6.90305233001708984375e-02) (70, 7.61259570717811584473e-02) (71, 5.76038323342800140381e-02) (72, 8.23885574936866760254e-02) (73, -1.61635801196098327637e-01) (74, 3.87472569942474365234e-01) (75, 1.99960738420486450195e-01) (76, -5.40922851562500000000e+02) (77, 1.50000000000000000000e+03) (78, 1.50000000000000000000e+03) (79, 1.50000000000000000000e+03) (80, 1.50000000000000000000e+03) (81, 1.50000000000000000000e+03) (82, 1.50000000000000000000e+03) (83, 1.49999987792968750000e+03) (84, 8.10940340161323547363e-02) (85, 3.12720119953155517578e-01) (86, 2.44119808077812194824e-01) (87, 3.23039859533309936523e-01) (88, -1.01886466145515441895e-01) (89, -2.98804581165313720703e-01) (90, 3.15572023391723632812e-01) (91, 2.26115369796752929688e+00) (92, 5.48143310546875000000e+02) (93, 1.50000000000000000000e+03) (94, 1.50000000000000000000e+03) (95, 1.50000000000000000000e+03) (96, 1.50000000000000000000e+03) (97, 1.50000000000000000000e+03) (98, 1.50000000000000000000e+03) (99, 5.09694442152976989746e-02) (100, 5.28709292411804199219e-01) (101, 5.79376637935638427734e-01) (102, 7.06241786479949951172e-01) (103, 9.15232479572296142578e-01) (104, 2.38663002848625183105e-01) (105, -2.44906738400459289551e-01) (106, 4.60088461637496948242e-01) (107, 2.54169998168945312500e+02) (108, 1.43562229350209236145e-02) (109, 1.50000000000000000000e+03) (110, 1.50000000000000000000e+03) (111, 1.50000000000000000000e+03) (112, 1.50000000000000000000e+03) (113, 1.50000000000000000000e+03) (114, 1.50000000000000000000e+03) (115, 4.89033460617065429688e-01) (116, 5.85534512996673583984e-01) (117, 4.25097435712814331055e-01) (118, 6.02988183498382568359e-01) (119, 9.24360930919647216797e-01) (120, -5.96719197928905487061e-02) (121, -1.40184417366981506348e-01) (122, 6.66401624679565429688e-01) (123, 2.27194261550903320312e+00) (124, -6.23228406906127929688e+00) (125, 1.50000000000000000000e+03) (126, 1.50000000000000000000e+03) (127, 1.50000000000000000000e+03) (128, 1.50000000000000000000e+03) (129, 1.50000000000000000000e+03) (130, 1.50000000000000000000e+03) (131, 3.21028232574462890625e-01) (132, 4.23010349273681640625e-01) (133, 5.24429321289062500000e-01) (134, 4.85105663537979125977e-01) (135, 8.43145489692687988281e-01) (136, 8.89219790697097778320e-02) (137, -6.09158501029014587402e-02) (138, 6.42976403236389160156e-01) (139, 6.62861824035644531250e-01) (140, 3.05631160736083984375e-01) (141, 1.50000000000000000000e+03) (142, 1.50000000000000000000e+03) (143, 1.50000000000000000000e+03) (144, 1.50000000000000000000e+03) (145, 1.50000000000000000000e+03) (146, 1.50000000000000000000e+03) (147, -2.12813332676887512207e-01) (148, 7.13840961456298828125e-01) (149, 6.68137550354003906250e-01) (150, 5.39005577564239501953e-01) (151, 4.83203262090682983398e-01) (152, 3.76501053571701049805e-01) (153, -3.83347004652023315430e-01) (154, 5.65091609954833984375e-01) (155, 4.09601509571075439453e-01) (156, 1.49999987792968750000e+03) (157, 1.50000000000000000000e+03) (158, 1.50000000000000000000e+03) (159, 1.50000000000000000000e+03) (160, 1.50000000000000000000e+03) (161, 1.50000000000000000000e+03) (162, 1.50000000000000000000e+03) (163, 3.86512160301208496094e-01) (164, 1.20020508766174316406e+00) (165, 4.70147818326950073242e-01) (166, 5.51778554916381835938e-01) (167, 4.05387043952941894531e-01) (168, -1.00262522697448730469e-01) (169, 3.37575078010559082031e-02) (170, 3.93459439277648925781e-01) (171, 6.78957283496856689453e-01) (172, 1.41397192382812500000e+03) (173, 1.50000000000000000000e+03) (174, 1.50000000000000000000e+03) (175, 1.50000000000000000000e+03) (176, 1.50000000000000000000e+03) (177, 1.50000000000000000000e+03) (178, 1.50000000000000000000e+03) (179, -1.50709667205810546875e+01) (180, 1.69777601957321166992e-01) (181, -1.09766773879528045654e-01) (182, -1.64707273244857788086e-01) (183, 3.72028015553951263428e-02) (184, -1.02969920262694358826e-02) (185, -7.92143866419792175293e-02) (186, 2.70907878875732421875e-01) (187, 2.17958062887191772461e-01) (188, -1.26251098632812500000e+03) (189, 1.50000000000000000000e+03) (190, 1.50000000000000000000e+03) (191, 1.50000000000000000000e+03) (192, 1.50000000000000000000e+03) (193, 1.50000000000000000000e+03) (194, 1.50000000000000000000e+03) (195, 5.75761230468750000000e+02) (196, 3.41153717041015625000e+00) (197, -3.16388678550720214844e+00) (198, 8.49928438663482666016e-01) (199, 1.40254884958267211914e-01) (200, -1.68929398059844970703e-01) (201, 4.78841751813888549805e-01) (202, 1.49986828613281250000e+03) (203, -5.17725891113281250000e+02) (204, -1.49958618164062500000e+03) (205, 1.50000000000000000000e+03) (206, 1.50000000000000000000e+03) (207, 1.50000000000000000000e+03) (208, 1.50000000000000000000e+03) (209, 1.50000000000000000000e+03) (210, 1.50000000000000000000e+03) (211, 1.50000000000000000000e+03) (212, 1.50000000000000000000e+03) (213, 1.50000000000000000000e+03) (214, 1.19888842773437500000e+03) (215, 9.60346400737762451172e-01) (216, 2.28039324283599853516e-01) (217, -3.90713867187500000000e+02) (218, -2.08422660827636718750e+01) (219, -1.42674499511718750000e+03) (220, 1.50000000000000000000e+03) (221, 1.50000000000000000000e+03) (222, 1.50000000000000000000e+03) (223, 1.50000000000000000000e+03) (224, 1.50000000000000000000e+03) (225, 1.50000000000000000000e+03) (226, 1.50000000000000000000e+03) (227, 1.50000000000000000000e+03) (228, 1.50000000000000000000e+03) (229, 1.50000000000000000000e+03) (230, 1.50000000000000000000e+03) (231, 1.50000000000000000000e+03) (232, 1.50000000000000000000e+03) (233, 1.50000000000000000000e+03) (234, 1.50000000000000000000e+03) (235, 1.50000000000000000000e+03) (236, 1.50000000000000000000e+03) (237, 1.50000000000000000000e+03) (238, 1.50000000000000000000e+03) (239, 1.50000000000000000000e+03) (240, 1.50000000000000000000e+03) (241, 1.50000000000000000000e+03) (242, 1.50000000000000000000e+03) (243, 1.50000000000000000000e+03) (244, 1.50000000000000000000e+03) (245, 1.50000000000000000000e+03) (246, 1.50000000000000000000e+03) (247, 1.50000000000000000000e+03) (248, 1.50000000000000000000e+03) (249, 1.50000000000000000000e+03) (250, 1.50000000000000000000e+03) (251, 1.50000000000000000000e+03) (252, 1.50000000000000000000e+03) (253, 1.50000000000000000000e+03) (254, 1.50000000000000000000e+03) (255, 1.50000000000000000000e+03) (256, 2.42406472563743591309e-01) (0, 1.50000000000000000000e+03) (1, 1.50000000000000000000e+03) (2, 1.50000000000000000000e+03) (3, 1.50000000000000000000e+03) (4, 1.50000000000000000000e+03) (5, 1.50000000000000000000e+03) (6, 1.50000000000000000000e+03) (7, 1.50000000000000000000e+03) (8, 1.50000000000000000000e+03) (9, 1.50000000000000000000e+03) (10, 1.50000000000000000000e+03) (11, 1.50000000000000000000e+03) (12, 1.50000000000000000000e+03) (13, 1.50000000000000000000e+03) (14, 1.50000000000000000000e+03) (15, 1.50000000000000000000e+03) (16, 1.50000000000000000000e+03) (17, 1.50000000000000000000e+03) (18, 1.50000000000000000000e+03) (19, 1.50000000000000000000e+03) (20, 1.50000000000000000000e+03) (21, 1.50000000000000000000e+03) (22, 1.50000000000000000000e+03) (23, 1.50000000000000000000e+03) (24, 1.50000000000000000000e+03) (25, 1.50000000000000000000e+03) (26, 1.50000000000000000000e+03) (27, 1.50000000000000000000e+03) (28, 1.50000000000000000000e+03) (29, 1.50000000000000000000e+03) (30, 1.50000000000000000000e+03) (31, 1.50000000000000000000e+03) (32, 1.50000000000000000000e+03) (33, 1.50000000000000000000e+03) (34, 1.50000000000000000000e+03) (35, -4.11468935012817382812e+00) (36, 1.50000000000000000000e+03) (37, 1.50000000000000000000e+03) (38, 1.49988403320312500000e+03) (39, 1.49975427246093750000e+03) (40, 1.49862731933593750000e+03) (41, 1.49986230468750000000e+03) (42, 1.49982409667968750000e+03) (43, 1.50000000000000000000e+03) (44, 1.50000000000000000000e+03) (45, 1.50000000000000000000e+03) (46, 1.50000000000000000000e+03) (47, 1.50000000000000000000e+03) (48, 1.50000000000000000000e+03) (49, 1.50000000000000000000e+03) (50, 1.50000000000000000000e+03) (51, -8.58016312122344970703e-01) (52, 2.91749358177185058594e-01) (53, 3.13635408878326416016e-01) (54, 1.54510736465454101562e-01) (55, -8.29768836498260498047e-01) (56, 4.72059175372123718262e-02) (57, -1.23271510004997253418e-01) (58, 1.49988220214843750000e+03) (59, -9.74547505378723144531e-01) (60, -2.06245613098144531250e+01) (61, 1.50000000000000000000e+03) (62, 1.50000000000000000000e+03) (63, 1.50000000000000000000e+03) (64, 1.50000000000000000000e+03) (65, 1.50000000000000000000e+03) (66, 1.50000000000000000000e+03) (67, -1.19799070060253143311e-01) (68, 6.22813940048217773438e-01) (69, 5.26607751846313476562e-01) (70, 2.54631519317626953125e-01) (71, -5.91728210449218750000e-01) (72, 5.71231245994567871094e-02) (73, 6.06567710638046264648e-02) (74, 3.14069390296936035156e-01) (75, -1.95394837856292724609e+00) (76, 1.40001821517944335938e+00) (77, 1.50000000000000000000e+03) (78, 1.50000000000000000000e+03) (79, 1.50000000000000000000e+03) (80, 1.50000000000000000000e+03) (81, 1.50000000000000000000e+03) (82, 1.50000000000000000000e+03) (83, -8.40454548597335815430e-02) (84, 4.92576986551284790039e-01) (85, 4.03980046510696411133e-01) (86, 3.07253539562225341797e-01) (87, 3.19481313228607177734e-01) (88, 3.02933305501937866211e-01) (89, 1.19640499353408813477e-01) (90, -4.67306643724441528320e-01) (91, 7.31333673000335693359e-01) (92, -2.23554626107215881348e-01) (93, 1.50000000000000000000e+03) (94, 1.50000000000000000000e+03) (95, 1.50000000000000000000e+03) (96, 1.50000000000000000000e+03) (97, 1.50000000000000000000e+03) (98, 1.50000000000000000000e+03) (99, -2.72344619035720825195e-01) (100, 4.82914268970489501953e-01) (101, 2.83947288990020751953e-01) (102, 2.93887078762054443359e-01) (103, 2.79769897460937500000e-01) (104, 4.25187498331069946289e-01) (105, -1.68037652969360351562e-01) (106, 3.27929735183715820312e-01) (107, 6.06367111206054687500e-01) (108, 3.04350495338439941406e-01) (109, 1.50000000000000000000e+03) (110, 1.50000000000000000000e+03) (111, 1.50000000000000000000e+03) (112, 1.50000000000000000000e+03) (113, 1.50000000000000000000e+03) (114, 1.50000000000000000000e+03) (115, 3.09938430786132812500e-01) (116, 4.87065494060516357422e-01) (117, 3.87382090091705322266e-01) (118, 2.73682296276092529297e-01) (119, -2.19201833009719848633e-01) (120, 3.93659591674804687500e-01) (121, 2.74956732988357543945e-01) (122, 9.18350741267204284668e-02) (123, 5.66473841667175292969e-01) (124, 7.02242732048034667969e-01) (125, 1.50000000000000000000e+03) (126, 1.50000000000000000000e+03) (127, 1.50000000000000000000e+03) (128, 1.50000000000000000000e+03) (129, 1.50000000000000000000e+03) (130, 1.50000000000000000000e+03) (131, 3.73680889606475830078e-01) (132, 5.21258056163787841797e-01) (133, 1.59975066781044006348e-01) (134, -3.11223394237458705902e-03) (135, 3.48427623510360717773e-01) (136, 4.08417791128158569336e-01) (137, 1.36701598763465881348e-01) (138, 2.77929097414016723633e-01) (139, 4.74704414606094360352e-01) (140, 5.00459480285644531250e+01) (141, 1.50000000000000000000e+03) (142, 1.50000000000000000000e+03) (143, 1.50000000000000000000e+03) (144, 1.50000000000000000000e+03) (145, 1.50000000000000000000e+03) (146, 1.50000000000000000000e+03) (147, 1.16645169258117675781e+00) (148, 3.06878358125686645508e-01) (149, 2.48900234699249267578e-01) (150, 1.05528585612773895264e-01) (151, 3.30989837646484375000e-01) (152, 3.36733460426330566406e-01) (153, 3.19767296314239501953e-02) (154, -1.60999804735183715820e-01) (155, 6.47800445556640625000e-01) (156, 5.61015415191650390625e+00) (157, 1.50000000000000000000e+03) (158, 1.50000000000000000000e+03) (159, 1.50000000000000000000e+03) (160, 1.50000000000000000000e+03) (161, 1.50000000000000000000e+03) (162, 1.50000000000000000000e+03) (163, -5.13197231292724609375e+00) (164, 3.25867086648941040039e-01) (165, -8.95610451698303222656e-03) (166, 2.64285087585449218750e-01) (167, 1.05363242328166961670e-01) (168, 4.17783737182617187500e-01) (169, -6.51920795440673828125e-01) (170, -7.74131417274475097656e-02) (171, 4.76532548666000366211e-01) (172, 4.02308851480484008789e-01) (173, 1.50000000000000000000e+03) (174, 1.50000000000000000000e+03) (175, 1.50000000000000000000e+03) (176, 1.50000000000000000000e+03) (177, 1.50000000000000000000e+03) (178, 1.50000000000000000000e+03) (179, -1.66333389282226562500e+00) (180, 5.92648461461067199707e-02) (181, 1.26126870512962341309e-01) (182, 2.53682941198348999023e-01) (183, 2.48316079378128051758e-01) (184, 4.44078832864761352539e-01) (185, 3.31325024366378784180e-01) (186, 6.92251324653625488281e-01) (187, -3.04941892623901367188e+00) (188, 1.94593119621276855469e+00) (189, 1.50000000000000000000e+03) (190, 1.50000000000000000000e+03) (191, 1.50000000000000000000e+03) (192, 1.50000000000000000000e+03) (193, 1.50000000000000000000e+03) (194, 1.50000000000000000000e+03) (195, 2.15021324157714843750e+00) (196, 2.98905313014984130859e-01) (197, -1.87042582035064697266e+00) (198, 3.67868006229400634766e-01) (199, -2.41614297032356262207e-01) (200, 1.27316519618034362793e-01) (201, -1.33924290537834167480e-01) (202, 6.82310527190566062927e-03) (203, 1.42377555370330810547e+00) (204, 8.42136287689208984375e+00) (205, 1.50000000000000000000e+03) (206, 1.50000000000000000000e+03) (207, 1.50000000000000000000e+03) (208, 1.50000000000000000000e+03) (209, 1.50000000000000000000e+03) (210, 1.50000000000000000000e+03) (211, 1.50000000000000000000e+03) (212, 1.50000000000000000000e+03) (213, 1.50000000000000000000e+03) (214, -8.24774597167968750000e+02) (215, 9.46697592735290527344e-01) (216, 7.21543655395507812500e+01) (217, 1.49960473632812500000e+03) (218, 9.33827340602874755859e-01) (219, -1.50000000000000000000e+03) (220, 1.50000000000000000000e+03) (221, 1.50000000000000000000e+03) (222, 1.50000000000000000000e+03) (223, 1.50000000000000000000e+03) (224, 1.50000000000000000000e+03) (225, 1.50000000000000000000e+03) (226, 1.50000000000000000000e+03) (227, 1.50000000000000000000e+03) (228, 1.50000000000000000000e+03) (229, 1.50000000000000000000e+03) (230, 1.50000000000000000000e+03) (231, 1.50000000000000000000e+03) (232, 1.50000000000000000000e+03) (233, 1.50000000000000000000e+03) (234, 1.50000000000000000000e+03) (235, 1.50000000000000000000e+03) (236, 1.50000000000000000000e+03) (237, 1.50000000000000000000e+03) (238, 1.50000000000000000000e+03) (239, 1.50000000000000000000e+03) (240, 1.50000000000000000000e+03) (241, 1.50000000000000000000e+03) (242, 1.50000000000000000000e+03) (243, 1.50000000000000000000e+03) (244, 1.50000000000000000000e+03) (245, 1.50000000000000000000e+03) (246, 1.50000000000000000000e+03) (247, 1.50000000000000000000e+03) (248, 1.50000000000000000000e+03) (249, 1.50000000000000000000e+03) (250, 1.50000000000000000000e+03) (251, 1.50000000000000000000e+03) (252, 1.50000000000000000000e+03) (253, 1.50000000000000000000e+03) (254, 1.50000000000000000000e+03) (255, 1.50000000000000000000e+03) (256, 6.42996311187744140625e-01) (0, 1.50000000000000000000e+03) (1, 1.50000000000000000000e+03) (2, 1.50000000000000000000e+03) (3, 1.50000000000000000000e+03) (4, 1.50000000000000000000e+03) (5, 1.50000000000000000000e+03) (6, 1.50000000000000000000e+03) (7, 1.50000000000000000000e+03) (8, 1.50000000000000000000e+03) (9, 1.50000000000000000000e+03) (10, 1.50000000000000000000e+03) (11, 1.50000000000000000000e+03) (12, 1.50000000000000000000e+03) (13, 1.50000000000000000000e+03) (14, 1.50000000000000000000e+03) (15, 1.50000000000000000000e+03) (16, 1.50000000000000000000e+03) (17, 1.50000000000000000000e+03) (18, 1.50000000000000000000e+03) (19, 1.50000000000000000000e+03) (20, 1.50000000000000000000e+03) (21, 1.50000000000000000000e+03) (22, 1.50000000000000000000e+03) (23, 1.50000000000000000000e+03) (24, 1.50000000000000000000e+03) (25, 1.50000000000000000000e+03) (26, 1.50000000000000000000e+03) (27, 1.50000000000000000000e+03) (28, 1.50000000000000000000e+03) (29, 1.50000000000000000000e+03) (30, 1.50000000000000000000e+03) (31, 1.50000000000000000000e+03) (32, 1.50000000000000000000e+03) (33, 1.50000000000000000000e+03) (34, 1.50000000000000000000e+03) (35, -7.93178222656250000000e+02) (36, 1.50000000000000000000e+03) (37, 1.50000000000000000000e+03) (38, 9.81770217418670654297e-01) (39, -6.08708560466766357422e-01) (40, 2.52248811721801757812e+00) (41, 1.62647902965545654297e+00) (42, -6.88102817535400390625e+00) (43, 1.50000000000000000000e+03) (44, 1.50000000000000000000e+03) (45, 1.50000000000000000000e+03) (46, 1.50000000000000000000e+03) (47, 1.50000000000000000000e+03) (48, 1.50000000000000000000e+03) (49, 1.50000000000000000000e+03) (50, 1.50000000000000000000e+03) (51, 1.49999902343750000000e+03) (52, -4.82156097888946533203e-01) (53, 4.99654635787010192871e-02) (54, 8.31031203269958496094e-02) (55, 1.11489124596118927002e-01) (56, -1.23248510062694549561e-01) (57, 1.20964057743549346924e-01) (58, 2.25175723433494567871e-01) (59, 1.08774209022521972656e+00) (60, 6.51046829223632812500e+01) (61, 1.50000000000000000000e+03) (62, 1.50000000000000000000e+03) (63, 1.50000000000000000000e+03) (64, 1.50000000000000000000e+03) (65, 1.50000000000000000000e+03) (66, 1.50000000000000000000e+03) (67, 1.49999462890625000000e+03) (68, 6.40275359153747558594e-01) (69, 1.55714109539985656738e-01) (70, -1.32895320653915405273e-01) (71, -3.11735626310110092163e-02) (72, -1.84175699949264526367e-01) (73, -2.85695701837539672852e-01) (74, -1.09451301395893096924e-01) (75, 4.88220006227493286133e-01) (76, -5.80116157531738281250e+01) (77, 1.50000000000000000000e+03) (78, 1.50000000000000000000e+03) (79, 1.50000000000000000000e+03) (80, 1.50000000000000000000e+03) (81, 1.50000000000000000000e+03) (82, 1.50000000000000000000e+03) (83, 1.49999987792968750000e+03) (84, -5.77060729265213012695e-02) (85, 2.45885010808706283569e-02) (86, -1.39264613389968872070e-02) (87, 1.03400006890296936035e-01) (88, -2.26764380931854248047e-01) (89, -1.21708743274211883545e-01) (90, -1.18796013295650482178e-01) (91, 6.15471482276916503906e-01) (92, 1.49994787597656250000e+03) (93, 1.50000000000000000000e+03) (94, 1.50000000000000000000e+03) (95, 1.50000000000000000000e+03) (96, 1.50000000000000000000e+03) (97, 1.50000000000000000000e+03) (98, 1.50000000000000000000e+03) (99, 1.32994116210937500000e+03) (100, 2.80576527118682861328e-01) (101, 1.38133808970451354980e-01) (102, 3.82586680352687835693e-02) (103, -8.80001112818717956543e-02) (104, -1.26020446419715881348e-01) (105, -2.18046322464942932129e-01) (106, -3.62943977117538452148e-01) (107, -5.19255585968494415283e-02) (108, 1.49999670410156250000e+03) (109, 1.50000000000000000000e+03) (110, 1.50000000000000000000e+03) (111, 1.50000000000000000000e+03) (112, 1.50000000000000000000e+03) (113, 1.50000000000000000000e+03) (114, 1.50000000000000000000e+03) (115, 1.49655456542968750000e+03) (116, 2.83254593610763549805e-01) (117, -2.54147183150053024292e-02) (118, 9.36353057622909545898e-02) (119, 3.73428612947463989258e-02) (120, -5.01607716083526611328e-01) (121, -7.78940320014953613281e-02) (122, 1.24333463609218597412e-01) (123, 1.84762969613075256348e-01) (124, 1.49980444335937500000e+03) (125, 1.50000000000000000000e+03) (126, 1.50000000000000000000e+03) (127, 1.50000000000000000000e+03) (128, 1.50000000000000000000e+03) (129, 1.50000000000000000000e+03) (130, 1.50000000000000000000e+03) (131, 1.49999121093750000000e+03) (132, 1.49177089333534240723e-01) (133, 3.26987099833786487579e-03) (134, 1.12607531249523162842e-01) (135, -1.70461729168891906738e-01) (136, -4.49305102229118347168e-02) (137, -1.90849930047988891602e-01) (138, -9.63980108499526977539e-02) (139, -1.63086563348770141602e-01) (140, 1.49996276855468750000e+03) (141, 1.50000000000000000000e+03) (142, 1.50000000000000000000e+03) (143, 1.50000000000000000000e+03) (144, 1.50000000000000000000e+03) (145, 1.50000000000000000000e+03) (146, 1.50000000000000000000e+03) (147, 1.49692431640625000000e+03) (148, 2.99382179975509643555e-01) (149, 4.65510264039039611816e-02) (150, -4.41613458096981048584e-02) (151, -8.49952846765518188477e-02) (152, 2.42815747857093811035e-01) (153, -1.99610799551010131836e-01) (154, -2.03751027584075927734e-02) (155, 1.43216520547866821289e-01) (156, 1.49996228027343750000e+03) (157, 1.50000000000000000000e+03) (158, 1.50000000000000000000e+03) (159, 1.50000000000000000000e+03) (160, 1.50000000000000000000e+03) (161, 1.50000000000000000000e+03) (162, 1.50000000000000000000e+03) (163, 5.26066162109375000000e+02) (164, 3.75527173280715942383e-01) (165, 2.11248561739921569824e-01) (166, -8.31321403384208679199e-02) (167, -1.03637754917144775391e-01) (168, 5.45127838850021362305e-02) (169, 6.90124109387397766113e-02) (170, 5.82361519336700439453e-02) (171, 3.34915548563003540039e-01) (172, 1.44867089843750000000e+03) (173, 1.50000000000000000000e+03) (174, 1.50000000000000000000e+03) (175, 1.50000000000000000000e+03) (176, 1.50000000000000000000e+03) (177, 1.50000000000000000000e+03) (178, 1.50000000000000000000e+03) (179, -1.49998803710937500000e+03) (180, 2.33129695057868957520e-01) (181, 1.38248771429061889648e-01) (182, -1.34634420275688171387e-01) (183, -1.39575362205505371094e-01) (184, -1.03050284087657928467e-01) (185, -1.45699322223663330078e-01) (186, 2.97794878482818603516e-01) (187, 2.25886434316635131836e-01) (188, 1.06620849609375000000e+03) (189, 1.50000000000000000000e+03) (190, 1.50000000000000000000e+03) (191, 1.50000000000000000000e+03) (192, 1.50000000000000000000e+03) (193, 1.50000000000000000000e+03) (194, 1.50000000000000000000e+03) (195, 1.48440332031250000000e+03) (196, 2.23203331232070922852e-01) (197, -1.58427312970161437988e-01) (198, 6.15367069840431213379e-02) (199, -7.06359744071960449219e-01) (200, -4.40296053886413574219e-01) (201, 3.71371030807495117188e-01) (202, 2.16125085949897766113e-01) (203, 3.11606824398040771484e-01) (204, -4.46187057495117187500e+01) (205, 1.50000000000000000000e+03) (206, 1.50000000000000000000e+03) (207, 1.50000000000000000000e+03) (208, 1.50000000000000000000e+03) (209, 1.50000000000000000000e+03) (210, 1.50000000000000000000e+03) (211, 1.50000000000000000000e+03) (212, 1.50000000000000000000e+03) (213, 1.50000000000000000000e+03) (214, 5.65460145473480224609e-01) (215, 1.87180876731872558594e+00) (216, -2.24036598205566406250e+00) (217, -3.98484635353088378906e+00) (218, 3.65925580263137817383e-01) (219, -4.25097131729125976562e+00) (220, 1.50000000000000000000e+03) (221, 1.50000000000000000000e+03) (222, 1.50000000000000000000e+03) (223, 1.50000000000000000000e+03) (224, 1.50000000000000000000e+03) (225, 1.50000000000000000000e+03) (226, 1.50000000000000000000e+03) (227, 1.50000000000000000000e+03) (228, 1.50000000000000000000e+03) (229, 1.50000000000000000000e+03) (230, 1.50000000000000000000e+03) (231, 1.50000000000000000000e+03) (232, 1.50000000000000000000e+03) (233, 1.50000000000000000000e+03) (234, 1.50000000000000000000e+03) (235, 1.50000000000000000000e+03) (236, 1.50000000000000000000e+03) (237, 1.50000000000000000000e+03) (238, 1.50000000000000000000e+03) (239, 1.50000000000000000000e+03) (240, 1.50000000000000000000e+03) (241, 1.50000000000000000000e+03) (242, 1.50000000000000000000e+03) (243, 1.50000000000000000000e+03) (244, 1.50000000000000000000e+03) (245, 1.50000000000000000000e+03) (246, 1.50000000000000000000e+03) (247, 1.50000000000000000000e+03) (248, 1.50000000000000000000e+03) (249, 1.50000000000000000000e+03) (250, 1.50000000000000000000e+03) (251, 1.50000000000000000000e+03) (252, 1.50000000000000000000e+03) (253, 1.50000000000000000000e+03) (254, 1.50000000000000000000e+03) (255, 1.50000000000000000000e+03) (256, 1.13642632961273193359e-01) (0, 1.50000000000000000000e+03) (1, 1.50000000000000000000e+03) (2, 1.50000000000000000000e+03) (3, 1.50000000000000000000e+03) (4, 1.50000000000000000000e+03) (5, 1.50000000000000000000e+03) (6, 1.50000000000000000000e+03) (7, 1.50000000000000000000e+03) (8, 1.50000000000000000000e+03) (9, 1.50000000000000000000e+03) (10, 1.50000000000000000000e+03) (11, 1.50000000000000000000e+03) (12, 1.50000000000000000000e+03) (13, 1.50000000000000000000e+03) (14, 1.50000000000000000000e+03) (15, 1.50000000000000000000e+03) (16, 1.50000000000000000000e+03) (17, 1.50000000000000000000e+03) (18, 1.50000000000000000000e+03) (19, 1.50000000000000000000e+03) (20, 1.50000000000000000000e+03) (21, 1.50000000000000000000e+03) (22, 1.50000000000000000000e+03) (23, 1.50000000000000000000e+03) (24, 1.50000000000000000000e+03) (25, 1.50000000000000000000e+03) (26, 1.50000000000000000000e+03) (27, 1.50000000000000000000e+03) (28, 1.50000000000000000000e+03) (29, 1.50000000000000000000e+03) (30, 1.50000000000000000000e+03) (31, 1.50000000000000000000e+03) (32, 1.50000000000000000000e+03) (33, 1.50000000000000000000e+03) (34, 1.50000000000000000000e+03) (35, -5.90883422851562500000e+02) (36, 1.50000000000000000000e+03) (37, 1.50000000000000000000e+03) (38, 1.44877429199218750000e+03) (39, 2.99085044860839843750e+00) (40, 1.50000000000000000000e+03) (41, 1.49994104003906250000e+03) (42, 1.49974877929687500000e+03) (43, 1.50000000000000000000e+03) (44, 1.50000000000000000000e+03) (45, 1.50000000000000000000e+03) (46, 1.50000000000000000000e+03) (47, 1.50000000000000000000e+03) (48, 1.50000000000000000000e+03) (49, 1.50000000000000000000e+03) (50, 1.50000000000000000000e+03) (51, -7.33734985351562500000e+02) (52, -7.05876398086547851562e+00) (53, 8.17271769046783447266e-01) (54, 1.02299010753631591797e+00) (55, 2.13744282722473144531e-01) (56, 7.98771619796752929688e-01) (57, 6.87610387802124023438e-01) (58, 1.48232800292968750000e+03) (59, -6.39304351806640625000e+00) (60, -1.12942712402343750000e+03) (61, 1.50000000000000000000e+03) (62, 1.50000000000000000000e+03) (63, 1.50000000000000000000e+03) (64, 1.50000000000000000000e+03) (65, 1.50000000000000000000e+03) (66, 1.50000000000000000000e+03) (67, -1.34139892578125000000e+03) (68, 2.56444377899169921875e+01) (69, 7.37623453140258789062e-01) (70, 3.81249994039535522461e-01) (71, -9.94312688708305358887e-02) (72, 4.01939868927001953125e-01) (73, 5.12950599193572998047e-01) (74, 3.23569715023040771484e-01) (75, 1.18574406951665878296e-02) (76, 1.49999987792968750000e+03) (77, 1.50000000000000000000e+03) (78, 1.50000000000000000000e+03) (79, 1.50000000000000000000e+03) (80, 1.50000000000000000000e+03) (81, 1.50000000000000000000e+03) (82, 1.50000000000000000000e+03) (83, -5.32308105468750000000e+02) (84, 7.84911036491394042969e-01) (85, 4.20222669839859008789e-01) (86, -1.24563565477728843689e-02) (87, -2.13336557149887084961e-01) (88, -1.18604525923728942871e-01) (89, 4.66017752885818481445e-01) (90, 4.05564993619918823242e-01) (91, 6.66435718536376953125e-01) (92, 1.06835375976562500000e+03) (93, 1.50000000000000000000e+03) (94, 1.50000000000000000000e+03) (95, 1.50000000000000000000e+03) (96, 1.50000000000000000000e+03) (97, 1.50000000000000000000e+03) (98, 1.50000000000000000000e+03) (99, 1.49579626464843750000e+03) (100, 2.00202012062072753906e+00) (101, 5.49868345260620117188e-01) (102, 1.59097030758857727051e-01) (103, 2.08818644285202026367e-01) (104, 5.16018867492675781250e-01) (105, 4.95432525873184204102e-01) (106, 3.17863464355468750000e-01) (107, 6.10995709896087646484e-01) (108, 1.21845739746093750000e+03) (109, 1.50000000000000000000e+03) (110, 1.50000000000000000000e+03) (111, 1.50000000000000000000e+03) (112, 1.50000000000000000000e+03) (113, 1.50000000000000000000e+03) (114, 1.50000000000000000000e+03) (115, 1.22106704711914062500e+01) (116, 1.05970323085784912109e+00) (117, 4.75845545530319213867e-01) (118, 4.40408915281295776367e-01) (119, 6.00891606882214546204e-03) (120, 2.61998206377029418945e-01) (121, 4.50929462909698486328e-01) (122, 1.77477881312370300293e-01) (123, 4.62622851133346557617e-01) (124, -7.46108764648437500000e+02) (125, 1.50000000000000000000e+03) (126, 1.50000000000000000000e+03) (127, 1.50000000000000000000e+03) (128, 1.50000000000000000000e+03) (129, 1.50000000000000000000e+03) (130, 1.50000000000000000000e+03) (131, 1.49999987792968750000e+03) (132, 9.08159852027893066406e-01) (133, 3.62223744392395019531e-01) (134, 1.04858854319900274277e-03) (135, -1.35191053152084350586e-01) (136, 2.08721980452537536621e-01) (137, 1.53279721736907958984e-01) (138, 1.01135991513729095459e-01) (139, 8.13490331172943115234e-01) (140, -1.11787976074218750000e+03) (141, 1.50000000000000000000e+03) (142, 1.50000000000000000000e+03) (143, 1.50000000000000000000e+03) (144, 1.50000000000000000000e+03) (145, 1.50000000000000000000e+03) (146, 1.50000000000000000000e+03) (147, 1.49999987792968750000e+03) (148, 4.58472549915313720703e-01) (149, 3.84345889091491699219e-01) (150, 4.30578172206878662109e-01) (151, 4.73937429487705230713e-02) (152, 3.65720689296722412109e-01) (153, 5.80275021493434906006e-02) (154, 2.33893617987632751465e-01) (155, 1.02654755115509033203e+00) (156, -1.44405932617187500000e+03) (157, 1.50000000000000000000e+03) (158, 1.50000000000000000000e+03) (159, 1.50000000000000000000e+03) (160, 1.50000000000000000000e+03) (161, 1.50000000000000000000e+03) (162, 1.50000000000000000000e+03) (163, -1.07666877746582031250e+02) (164, 5.62517829239368438721e-02) (165, 2.71483451128005981445e-01) (166, 4.46419715881347656250e-01) (167, -9.07571688294410705566e-02) (168, 5.46526968479156494141e-01) (169, 2.33789339661598205566e-01) (170, -3.25797486305236816406e+00) (171, 8.70643913745880126953e-01) (172, 3.58986022949218750000e+02) (173, 1.50000000000000000000e+03) (174, 1.50000000000000000000e+03) (175, 1.50000000000000000000e+03) (176, 1.50000000000000000000e+03) (177, 1.50000000000000000000e+03) (178, 1.50000000000000000000e+03) (179, -6.32738609313964843750e+01) (180, 7.96261847019195556641e-01) (181, 7.79762864112854003906e-01) (182, -5.30293285846710205078e-02) (183, 2.31492206454277038574e-01) (184, 4.80294436216354370117e-01) (185, 2.72878468036651611328e-01) (186, 5.41851222515106201172e-01) (187, 1.49976208496093750000e+03) (188, 7.19688049316406250000e+02) (189, 1.50000000000000000000e+03) (190, 1.50000000000000000000e+03) (191, 1.50000000000000000000e+03) (192, 1.50000000000000000000e+03) (193, 1.50000000000000000000e+03) (194, 1.50000000000000000000e+03) (195, -1.38559619140625000000e+03) (196, -5.85778999328613281250e+00) (197, 2.22662973403930664062e+00) (198, -4.48373258113861083984e-01) (199, 2.39349700927734375000e+02) (200, 1.47961816406250000000e+03) (201, -1.44579887390136718750e-01) (202, -1.89443767070770263672e+00) (203, -2.06506347656250000000e+00) (204, 1.31569396972656250000e+03) (205, 1.50000000000000000000e+03) (206, 1.50000000000000000000e+03) (207, 1.50000000000000000000e+03) (208, 1.50000000000000000000e+03) (209, 1.50000000000000000000e+03) (210, 1.50000000000000000000e+03) (211, 1.50000000000000000000e+03) (212, 1.50000000000000000000e+03) (213, 1.50000000000000000000e+03) (214, -1.49994458007812500000e+03) (215, 2.79476104736328125000e+02) (216, 1.49999951171875000000e+03) (217, 1.49865930175781250000e+03) (218, 1.49999975585937500000e+03) (219, 1.49999938964843750000e+03) (220, 1.50000000000000000000e+03) (221, 1.50000000000000000000e+03) (222, 1.50000000000000000000e+03) (223, 1.50000000000000000000e+03) (224, 1.50000000000000000000e+03) (225, 1.50000000000000000000e+03) (226, 1.50000000000000000000e+03) (227, 1.50000000000000000000e+03) (228, 1.50000000000000000000e+03) (229, 1.50000000000000000000e+03) (230, 1.50000000000000000000e+03) (231, 1.50000000000000000000e+03) (232, 1.50000000000000000000e+03) (233, 1.50000000000000000000e+03) (234, 1.50000000000000000000e+03) (235, 1.50000000000000000000e+03) (236, 1.50000000000000000000e+03) (237, 1.50000000000000000000e+03) (238, 1.50000000000000000000e+03) (239, 1.50000000000000000000e+03) (240, 1.50000000000000000000e+03) (241, 1.50000000000000000000e+03) (242, 1.50000000000000000000e+03) (243, 1.50000000000000000000e+03) (244, 1.50000000000000000000e+03) (245, 1.50000000000000000000e+03) (246, 1.50000000000000000000e+03) (247, 1.50000000000000000000e+03) (248, 1.50000000000000000000e+03) (249, 1.50000000000000000000e+03) (250, 1.50000000000000000000e+03) (251, 1.50000000000000000000e+03) (252, 1.50000000000000000000e+03) (253, 1.50000000000000000000e+03) (254, 1.50000000000000000000e+03) (255, 1.50000000000000000000e+03) (256, 4.07670468091964721680e-01) (0, 1.50000000000000000000e+03) (1, 1.50000000000000000000e+03) (2, 1.50000000000000000000e+03) (3, 1.50000000000000000000e+03) (4, 1.50000000000000000000e+03) (5, 1.50000000000000000000e+03) (6, 1.50000000000000000000e+03) (7, 1.50000000000000000000e+03) (8, 1.50000000000000000000e+03) (9, 1.50000000000000000000e+03) (10, 1.50000000000000000000e+03) (11, 1.50000000000000000000e+03) (12, 1.50000000000000000000e+03) (13, 1.50000000000000000000e+03) (14, 1.50000000000000000000e+03) (15, 1.50000000000000000000e+03) (16, 1.50000000000000000000e+03) (17, 1.50000000000000000000e+03) (18, 1.50000000000000000000e+03) (19, 1.50000000000000000000e+03) (20, 1.50000000000000000000e+03) (21, 1.50000000000000000000e+03) (22, 1.50000000000000000000e+03) (23, 1.50000000000000000000e+03) (24, 1.50000000000000000000e+03) (25, 1.50000000000000000000e+03) (26, 1.50000000000000000000e+03) (27, 1.50000000000000000000e+03) (28, 1.50000000000000000000e+03) (29, 1.50000000000000000000e+03) (30, 1.50000000000000000000e+03) (31, 1.50000000000000000000e+03) (32, 1.50000000000000000000e+03) (33, 1.50000000000000000000e+03) (34, 1.50000000000000000000e+03) (35, -1.47092919921875000000e+03) (36, 1.50000000000000000000e+03) (37, 1.50000000000000000000e+03) (38, 1.49998461914062500000e+03) (39, 1.49999890136718750000e+03) (40, 1.49994506835937500000e+03) (41, 1.49676342773437500000e+03) (42, 9.14434753417968750000e+02) (43, 1.50000000000000000000e+03) (44, 1.50000000000000000000e+03) (45, 1.50000000000000000000e+03) (46, 1.50000000000000000000e+03) (47, 1.50000000000000000000e+03) (48, 1.50000000000000000000e+03) (49, 1.50000000000000000000e+03) (50, 1.50000000000000000000e+03) (51, -8.57792663574218750000e+02) (52, -1.48573195934295654297e+00) (53, 1.44954979419708251953e-01) (54, 5.55632412433624267578e-01) (55, 1.49999987792968750000e+03) (56, 1.49910192871093750000e+03) (57, 1.28488659667968750000e+03) (58, 1.49787365722656250000e+03) (59, -1.81365370750427246094e+00) (60, 1.47900622558593750000e+03) (61, 1.50000000000000000000e+03) (62, 1.50000000000000000000e+03) (63, 1.50000000000000000000e+03) (64, 1.50000000000000000000e+03) (65, 1.50000000000000000000e+03) (66, 1.50000000000000000000e+03) (67, 1.98097167968750000000e+02) (68, -2.39663213491439819336e-01) (69, 6.47644400596618652344e-01) (70, 1.56979173421859741211e-01) (71, 5.47582089900970458984e-01) (72, 6.83108985424041748047e-01) (73, 4.93777066469192504883e-01) (74, 3.20489883422851562500e-01) (75, 1.06725126504898071289e-01) (76, 1.49999987792968750000e+03) (77, 1.50000000000000000000e+03) (78, 1.50000000000000000000e+03) (79, 1.50000000000000000000e+03) (80, 1.50000000000000000000e+03) (81, 1.50000000000000000000e+03) (82, 1.50000000000000000000e+03) (83, 9.53231692314147949219e-01) (84, 4.03533577919006347656e-01) (85, 4.92154031991958618164e-01) (86, 4.90758121013641357422e-01) (87, 5.76788544654846191406e-01) (88, 8.78664245605468750000e+02) (89, -4.65327024459838867188e-01) (90, 1.99078872799873352051e-01) (91, 3.59307974576950073242e-02) (92, 1.02302386474609375000e+03) (93, 1.50000000000000000000e+03) (94, 1.50000000000000000000e+03) (95, 1.50000000000000000000e+03) (96, 1.50000000000000000000e+03) (97, 1.50000000000000000000e+03) (98, 1.50000000000000000000e+03) (99, 1.16851103305816650391e+00) (100, 4.86131042242050170898e-01) (101, 5.45790851116180419922e-01) (102, 2.35843509435653686523e-01) (103, -9.43291485309600830078e-01) (104, -1.07003167271614074707e-01) (105, -4.92919944226741790771e-02) (106, 3.23468446731567382812e-01) (107, 2.01315551996231079102e-01) (108, 1.65838882446289062500e+02) (109, 1.50000000000000000000e+03) (110, 1.50000000000000000000e+03) (111, 1.50000000000000000000e+03) (112, 1.50000000000000000000e+03) (113, 1.50000000000000000000e+03) (114, 1.50000000000000000000e+03) (115, -6.19994163513183593750e+00) (116, 1.89020603895187377930e-01) (117, 4.17445152997970581055e-01) (118, 4.08306866884231567383e-01) (119, -4.21840250492095947266e-01) (120, 1.40590807422995567322e-02) (121, -1.17209903895854949951e-01) (122, 2.62215822935104370117e-01) (123, 3.06699246168136596680e-01) (124, 6.73992385864257812500e+01) (125, 1.50000000000000000000e+03) (126, 1.50000000000000000000e+03) (127, 1.50000000000000000000e+03) (128, 1.50000000000000000000e+03) (129, 1.50000000000000000000e+03) (130, 1.50000000000000000000e+03) (131, 7.61408758163452148438e+00) (132, 8.92735347151756286621e-02) (133, 2.80407875776290893555e-01) (134, 2.37365692853927612305e-01) (135, 6.78199648857116699219e-01) (136, 3.47443282604217529297e-01) (137, 3.71036291122436523438e-01) (138, 4.86780345439910888672e-01) (139, 2.01640203595161437988e-01) (140, 1.49997155761718750000e+03) (141, 1.50000000000000000000e+03) (142, 1.50000000000000000000e+03) (143, 1.50000000000000000000e+03) (144, 1.50000000000000000000e+03) (145, 1.50000000000000000000e+03) (146, 1.50000000000000000000e+03) (147, 1.49999987792968750000e+03) (148, -1.72074496746063232422e-01) (149, 2.18597277998924255371e-01) (150, -1.39166507869958877563e-03) (151, 4.58643168210983276367e-01) (152, 3.48895192146301269531e-01) (153, 5.14007449150085449219e-01) (154, 4.11103814840316772461e-01) (155, 1.47943437099456787109e-01) (156, 1.49968017578125000000e+03) (157, 1.50000000000000000000e+03) (158, 1.50000000000000000000e+03) (159, 1.50000000000000000000e+03) (160, 1.50000000000000000000e+03) (161, 1.50000000000000000000e+03) (162, 1.50000000000000000000e+03) (163, 3.96359372138977050781e+00) (164, 2.54314243793487548828e-01) (165, -4.69392776489257812500e-01) (166, 2.97878354787826538086e-01) (167, 1.17190921306610107422e+00) (168, 2.72103309631347656250e-01) (169, 3.05466979742050170898e-01) (170, 4.60511326789855957031e-01) (171, 2.09780365228652954102e-01) (172, 1.49755664062500000000e+03) (173, 1.50000000000000000000e+03) (174, 1.50000000000000000000e+03) (175, 1.50000000000000000000e+03) (176, 1.50000000000000000000e+03) (177, 1.50000000000000000000e+03) (178, 1.50000000000000000000e+03) (179, 1.38610565185546875000e+02) (180, -2.15021848678588867188e+00) (181, -3.91787678003311157227e-01) (182, -9.44482564926147460938e-01) (183, -8.62873017787933349609e-01) (184, 4.73893821239471435547e-01) (185, 3.46121162176132202148e-01) (186, -2.82279849052429199219e-01) (187, -2.48857307434082031250e+00) (188, 1.45330883789062500000e+03) (189, 1.50000000000000000000e+03) (190, 1.50000000000000000000e+03) (191, 1.50000000000000000000e+03) (192, 1.50000000000000000000e+03) (193, 1.50000000000000000000e+03) (194, 1.50000000000000000000e+03) (195, -3.72054351806640625000e+02) (196, -1.26573848724365234375e+00) (197, 5.55253565311431884766e-01) (198, -2.44044971466064453125e+00) (199, 5.52559435367584228516e-01) (200, -1.69721990823745727539e-01) (201, 3.64362955093383789062e-01) (202, -2.42797806859016418457e-01) (203, 7.68109369277954101562e+00) (204, -1.40098342895507812500e+02) (205, 1.50000000000000000000e+03) (206, 1.50000000000000000000e+03) (207, 1.50000000000000000000e+03) (208, 1.50000000000000000000e+03) (209, 1.50000000000000000000e+03) (210, 1.50000000000000000000e+03) (211, 1.50000000000000000000e+03) (212, 1.50000000000000000000e+03) (213, 1.50000000000000000000e+03) (214, -9.11314819335937500000e+02) (215, -2.03623428940773010254e-01) (216, -3.11305206298828125000e+02) (217, -1.48400292968750000000e+03) (218, 1.49981884765625000000e+03) (219, 1.49999975585937500000e+03) (220, 1.50000000000000000000e+03) (221, 1.50000000000000000000e+03) (222, 1.50000000000000000000e+03) (223, 1.50000000000000000000e+03) (224, 1.50000000000000000000e+03) (225, 1.50000000000000000000e+03) (226, 1.50000000000000000000e+03) (227, 1.50000000000000000000e+03) (228, 1.50000000000000000000e+03) (229, 1.50000000000000000000e+03) (230, 1.50000000000000000000e+03) (231, 1.50000000000000000000e+03) (232, 1.50000000000000000000e+03) (233, 1.50000000000000000000e+03) (234, 1.50000000000000000000e+03) (235, 1.50000000000000000000e+03) (236, 1.50000000000000000000e+03) (237, 1.50000000000000000000e+03) (238, 1.50000000000000000000e+03) (239, 1.50000000000000000000e+03) (240, 1.50000000000000000000e+03) (241, 1.50000000000000000000e+03) (242, 1.50000000000000000000e+03) (243, 1.50000000000000000000e+03) (244, 1.50000000000000000000e+03) (245, 1.50000000000000000000e+03) (246, 1.50000000000000000000e+03) (247, 1.50000000000000000000e+03) (248, 1.50000000000000000000e+03) (249, 1.50000000000000000000e+03) (250, 1.50000000000000000000e+03) (251, 1.50000000000000000000e+03) (252, 1.50000000000000000000e+03) (253, 1.50000000000000000000e+03) (254, 1.50000000000000000000e+03) (255, 1.50000000000000000000e+03) (256, 4.15124833583831787109e-01) (0, 1.50000000000000000000e+03) (1, 1.50000000000000000000e+03) (2, 1.50000000000000000000e+03) (3, 1.50000000000000000000e+03) (4, 1.50000000000000000000e+03) (5, 1.50000000000000000000e+03) (6, 1.50000000000000000000e+03) (7, 1.50000000000000000000e+03) (8, 1.50000000000000000000e+03) (9, 1.50000000000000000000e+03) (10, 1.50000000000000000000e+03) (11, 1.50000000000000000000e+03) (12, 1.50000000000000000000e+03) (13, 1.50000000000000000000e+03) (14, 1.50000000000000000000e+03) (15, 1.50000000000000000000e+03) (16, 1.50000000000000000000e+03) (17, 1.50000000000000000000e+03) (18, 1.50000000000000000000e+03) (19, 1.50000000000000000000e+03) (20, 1.50000000000000000000e+03) (21, 1.50000000000000000000e+03) (22, 1.50000000000000000000e+03) (23, 1.50000000000000000000e+03) (24, 1.50000000000000000000e+03) (25, 1.50000000000000000000e+03) (26, 1.50000000000000000000e+03) (27, 1.50000000000000000000e+03) (28, 1.50000000000000000000e+03) (29, 1.50000000000000000000e+03) (30, 1.50000000000000000000e+03) (31, 1.50000000000000000000e+03) (32, 1.50000000000000000000e+03) (33, 1.50000000000000000000e+03) (34, 1.50000000000000000000e+03) (35, -3.58551144599914550781e+00) (36, 1.50000000000000000000e+03) (37, 1.50000000000000000000e+03) (38, 1.49989294433593750000e+03) (39, 1.49999548339843750000e+03) (40, 1.49999316406250000000e+03) (41, 1.49978662109375000000e+03) (42, 1.86599457263946533203e+00) (43, 1.50000000000000000000e+03) (44, 1.50000000000000000000e+03) (45, 1.50000000000000000000e+03) (46, 1.50000000000000000000e+03) (47, 1.50000000000000000000e+03) (48, 1.50000000000000000000e+03) (49, 1.50000000000000000000e+03) (50, 1.50000000000000000000e+03) (51, 3.54484111070632934570e-01) (52, -1.37015610933303833008e-01) (53, -8.59334647655487060547e-01) (54, -1.41138508915901184082e-01) (55, 2.05488190054893493652e-01) (56, -1.34423568844795227051e-01) (57, -2.19598248600959777832e-01) (58, 6.93656742572784423828e-01) (59, -1.68296530842781066895e-01) (60, -2.17811727523803710938e+00) (61, 1.50000000000000000000e+03) (62, 1.50000000000000000000e+03) (63, 1.50000000000000000000e+03) (64, 1.50000000000000000000e+03) (65, 1.50000000000000000000e+03) (66, 1.50000000000000000000e+03) (67, -2.72136592864990234375e+00) (68, 5.24588406085968017578e-01) (69, -2.86402106285095214844e-02) (70, 3.23572874069213867188e-01) (71, -6.56664550304412841797e-01) (72, 1.90943494439125061035e-01) (73, 1.51443466544151306152e-01) (74, 2.89380341768264770508e-01) (75, -1.39827653765678405762e-01) (76, -1.38841092586517333984e-01) (77, 1.50000000000000000000e+03) (78, 1.50000000000000000000e+03) (79, 1.50000000000000000000e+03) (80, 1.50000000000000000000e+03) (81, 1.50000000000000000000e+03) (82, 1.50000000000000000000e+03) (83, -6.60359337925910949707e-02) (84, 5.01597344875335693359e-01) (85, 2.59335070848464965820e-01) (86, 1.26546412706375122070e-01) (87, 3.95255088806152343750e-02) (88, 3.11081320047378540039e-01) (89, 4.59791511297225952148e-01) (90, 1.00775830447673797607e-01) (91, 3.38190466165542602539e-01) (92, -1.01542627811431884766e+00) (93, 1.50000000000000000000e+03) (94, 1.50000000000000000000e+03) (95, 1.50000000000000000000e+03) (96, 1.50000000000000000000e+03) (97, 1.50000000000000000000e+03) (98, 1.50000000000000000000e+03) (99, -5.11204719543457031250e-01) (100, 3.50180149078369140625e-01) (101, 1.59505680203437805176e-01) (102, 3.75282049179077148438e-01) (103, 4.66069161891937255859e-01) (104, 4.38615441322326660156e-01) (105, 3.46997082233428955078e-01) (106, 2.74779021739959716797e-01) (107, 5.16768574714660644531e-01) (108, 2.15790659189224243164e-01) (109, 1.50000000000000000000e+03) (110, 1.50000000000000000000e+03) (111, 1.50000000000000000000e+03) (112, 1.50000000000000000000e+03) (113, 1.50000000000000000000e+03) (114, 1.50000000000000000000e+03) (115, 6.86237692832946777344e-01) (116, 2.55117624998092651367e-01) (117, 4.65203940868377685547e-01) (118, 3.46488744020462036133e-01) (119, 4.86398547887802124023e-01) (120, 1.55116170644760131836e-01) (121, 3.09230148792266845703e-01) (122, 4.61079925298690795898e-01) (123, 4.46017086505889892578e-01) (124, -4.55412566661834716797e-02) (125, 1.50000000000000000000e+03) (126, 1.50000000000000000000e+03) (127, 1.50000000000000000000e+03) (128, 1.50000000000000000000e+03) (129, 1.50000000000000000000e+03) (130, 1.50000000000000000000e+03) (131, 4.59500198364257812500e+01) (132, 3.86067092418670654297e-01) (133, 4.30853813886642456055e-01) (134, -1.01584565639495849609e+00) (135, -4.33331765234470367432e-02) (136, 3.56882333755493164062e-01) (137, 1.29740255943033844233e-05) (138, 5.60119628906250000000e-01) (139, 4.49434280395507812500e-01) (140, 1.34386754035949707031e+00) (141, 1.50000000000000000000e+03) (142, 1.50000000000000000000e+03) (143, 1.50000000000000000000e+03) (144, 1.50000000000000000000e+03) (145, 1.50000000000000000000e+03) (146, 1.50000000000000000000e+03) (147, 1.49999987792968750000e+03) (148, 2.80382782220840454102e-01) (149, 2.27882370352745056152e-01) (150, 1.20075009763240814209e-01) (151, 4.01592880487442016602e-01) (152, -7.41336122155189514160e-02) (153, 1.77089229226112365723e-01) (154, -1.07623851299285888672e+00) (155, 4.60465967655181884766e-01) (156, 1.71610403060913085938e+00) (157, 1.50000000000000000000e+03) (158, 1.50000000000000000000e+03) (159, 1.50000000000000000000e+03) (160, 1.50000000000000000000e+03) (161, 1.50000000000000000000e+03) (162, 1.50000000000000000000e+03) (163, 1.21565954589843750000e+03) (164, 2.01902180910110473633e-01) (165, 2.24810227751731872559e-01) (166, -4.50156517326831817627e-02) (167, 4.18637126684188842773e-01) (168, 3.51799011230468750000e-01) (169, -5.77355250716209411621e-02) (170, -2.35999897122383117676e-01) (171, 3.14939320087432861328e-01) (172, 1.04829040527343750000e+03) (173, 1.50000000000000000000e+03) (174, 1.50000000000000000000e+03) (175, 1.50000000000000000000e+03) (176, 1.50000000000000000000e+03) (177, 1.50000000000000000000e+03) (178, 1.50000000000000000000e+03) (179, 2.49161124229431152344e+00) (180, -1.63988061249256134033e-02) (181, 3.57347369194030761719e-01) (182, 4.42047774791717529297e-01) (183, 2.93168812990188598633e-01) (184, 1.69390648603439331055e-01) (185, 1.72306045889854431152e-01) (186, 5.05984187126159667969e-01) (187, -9.75387156009674072266e-01) (188, 7.60272644042968750000e+02) (189, 1.50000000000000000000e+03) (190, 1.50000000000000000000e+03) (191, 1.50000000000000000000e+03) (192, 1.50000000000000000000e+03) (193, 1.50000000000000000000e+03) (194, 1.50000000000000000000e+03) (195, -5.51163148880004882812e+00) (196, -1.99722930788993835449e-01) (197, 7.02859520912170410156e-01) (198, 5.22696793079376220703e-01) (199, 1.54279261827468872070e-01) (200, -2.03057184815406799316e-01) (201, 2.76287812739610671997e-02) (202, -1.99999567121267318726e-02) (203, 3.79109270870685577393e-02) (204, -4.45612764358520507812e+00) (205, 1.50000000000000000000e+03) (206, 1.50000000000000000000e+03) (207, 1.50000000000000000000e+03) (208, 1.50000000000000000000e+03) (209, 1.50000000000000000000e+03) (210, 1.50000000000000000000e+03) (211, 1.50000000000000000000e+03) (212, 1.50000000000000000000e+03) (213, 1.50000000000000000000e+03) (214, -7.57744252681732177734e-01) (215, 2.34647050499916076660e-01) (216, 6.51698970794677734375e+00) (217, 1.49996997070312500000e+03) (218, 8.28740954399108886719e-01) (219, -7.57758911132812500000e+02) (220, 1.50000000000000000000e+03) (221, 1.50000000000000000000e+03) (222, 1.50000000000000000000e+03) (223, 1.50000000000000000000e+03) (224, 1.50000000000000000000e+03) (225, 1.50000000000000000000e+03) (226, 1.50000000000000000000e+03) (227, 1.50000000000000000000e+03) (228, 1.50000000000000000000e+03) (229, 1.50000000000000000000e+03) (230, 1.50000000000000000000e+03) (231, 1.50000000000000000000e+03) (232, 1.50000000000000000000e+03) (233, 1.50000000000000000000e+03) (234, 1.50000000000000000000e+03) (235, 1.50000000000000000000e+03) (236, 1.50000000000000000000e+03) (237, 1.50000000000000000000e+03) (238, 1.50000000000000000000e+03) (239, 1.50000000000000000000e+03) (240, 1.50000000000000000000e+03) (241, 1.50000000000000000000e+03) (242, 1.50000000000000000000e+03) (243, 1.50000000000000000000e+03) (244, 1.50000000000000000000e+03) (245, 1.50000000000000000000e+03) (246, 1.50000000000000000000e+03) (247, 1.50000000000000000000e+03) (248, 1.50000000000000000000e+03) (249, 1.50000000000000000000e+03) (250, 1.50000000000000000000e+03) (251, 1.50000000000000000000e+03) (252, 1.50000000000000000000e+03) (253, 1.50000000000000000000e+03) (254, 1.50000000000000000000e+03) (255, 1.50000000000000000000e+03) (256, 6.44348680973052978516e-01) (0, 1.50000000000000000000e+03) (1, 1.50000000000000000000e+03) (2, 1.50000000000000000000e+03) (3, 1.50000000000000000000e+03) (4, 1.50000000000000000000e+03) (5, 1.50000000000000000000e+03) (6, 1.50000000000000000000e+03) (7, 1.50000000000000000000e+03) (8, 1.50000000000000000000e+03) (9, 1.50000000000000000000e+03) (10, 1.50000000000000000000e+03) (11, 1.50000000000000000000e+03) (12, 1.50000000000000000000e+03) (13, 1.50000000000000000000e+03) (14, 1.50000000000000000000e+03) (15, 1.50000000000000000000e+03) (16, 1.50000000000000000000e+03) (17, 1.50000000000000000000e+03) (18, 1.50000000000000000000e+03) (19, 1.50000000000000000000e+03) (20, 1.50000000000000000000e+03) (21, 1.50000000000000000000e+03) (22, 1.50000000000000000000e+03) (23, 1.50000000000000000000e+03) (24, 1.50000000000000000000e+03) (25, 1.50000000000000000000e+03) (26, 1.50000000000000000000e+03) (27, 1.50000000000000000000e+03) (28, 1.50000000000000000000e+03) (29, 1.50000000000000000000e+03) (30, 1.50000000000000000000e+03) (31, 1.50000000000000000000e+03) (32, 1.50000000000000000000e+03) (33, 1.50000000000000000000e+03) (34, 1.50000000000000000000e+03) (35, -9.12909582257270812988e-03) (36, 1.50000000000000000000e+03) (37, 1.50000000000000000000e+03) (38, -4.70881342887878417969e-01) (39, -3.77698540687561035156e+00) (40, -1.64883438110351562500e+02) (41, -1.38609716796875000000e+03) (42, -5.46338558197021484375e-01) (43, 1.50000000000000000000e+03) (44, 1.50000000000000000000e+03) (45, 1.50000000000000000000e+03) (46, 1.50000000000000000000e+03) (47, 1.50000000000000000000e+03) (48, 1.50000000000000000000e+03) (49, 1.50000000000000000000e+03) (50, 1.50000000000000000000e+03) (51, 1.13319635391235351562e+00) (52, 2.50489592552185058594e-01) (53, -3.19855407714843750000e+02) (54, -7.56266403198242187500e+01) (55, -2.98601359128952026367e-01) (56, -6.55006229877471923828e-01) (57, -2.04584151506423950195e-01) (58, -5.29358983039855957031e-01) (59, -4.41488189697265625000e+01) (60, 6.18293701171875000000e+02) (61, 1.50000000000000000000e+03) (62, 1.50000000000000000000e+03) (63, 1.50000000000000000000e+03) (64, 1.50000000000000000000e+03) (65, 1.50000000000000000000e+03) (66, 1.50000000000000000000e+03) (67, 1.57824340820312500000e+02) (68, -2.84151124954223632812e+00) (69, -2.31985497474670410156e+00) (70, -3.76042157411575317383e-01) (71, -2.12984442710876464844e-01) (72, -2.04351872205734252930e-01) (73, 1.66677892208099365234e-01) (74, -4.89571362733840942383e-01) (75, -1.50000000000000000000e+03) (76, -9.24070775508880615234e-02) (77, 1.50000000000000000000e+03) (78, 1.50000000000000000000e+03) (79, 1.50000000000000000000e+03) (80, 1.50000000000000000000e+03) (81, 1.50000000000000000000e+03) (82, 1.50000000000000000000e+03) (83, -2.58027130126953125000e+02) (84, -1.07064217329025268555e-01) (85, -2.77614712715148925781e-01) (86, -2.93989717960357666016e-01) (87, -1.65359437465667724609e-01) (88, -1.74247577786445617676e-01) (89, -3.77035051584243774414e-01) (90, -3.05517643690109252930e-01) (91, -1.49998803710937500000e+03) (92, 3.95631742477416992188e+00) (93, 1.50000000000000000000e+03) (94, 1.50000000000000000000e+03) (95, 1.50000000000000000000e+03) (96, 1.50000000000000000000e+03) (97, 1.50000000000000000000e+03) (98, 1.50000000000000000000e+03) (99, -6.50987319946289062500e+01) (100, -1.81662231683731079102e-01) (101, -3.33076149225234985352e-01) (102, -5.85628628730773925781e-01) (103, 1.68920338153839111328e-01) (104, 2.03874737024307250977e-01) (105, -7.67796933650970458984e-02) (106, -4.08554494380950927734e-01) (107, -3.21979103088378906250e+01) (108, 1.69932857155799865723e-01) (109, 1.50000000000000000000e+03) (110, 1.50000000000000000000e+03) (111, 1.50000000000000000000e+03) (112, 1.50000000000000000000e+03) (113, 1.50000000000000000000e+03) (114, 1.50000000000000000000e+03) (115, -8.50989162921905517578e-01) (116, -1.25181645154953002930e-01) (117, -5.32448530197143554688e-01) (118, -4.12836253643035888672e-01) (119, -8.76308307051658630371e-02) (120, -2.90063977241516113281e-01) (121, -3.43744695186614990234e-01) (122, -4.84780579805374145508e-01) (123, -3.18673152923583984375e+01) (124, -3.63770157098770141602e-01) (125, 1.50000000000000000000e+03) (126, 1.50000000000000000000e+03) (127, 1.50000000000000000000e+03) (128, 1.50000000000000000000e+03) (129, 1.50000000000000000000e+03) (130, 1.50000000000000000000e+03) (131, 5.45585876464843750000e+02) (132, -3.58473777770996093750e-01) (133, -4.84902799129486083984e-01) (134, -3.58632653951644897461e-01) (135, 4.21495409682393074036e-03) (136, -5.33802583813667297363e-02) (137, -6.03269398212432861328e-01) (138, -4.89368647336959838867e-01) (139, -3.07288599014282226562e+00) (140, 1.01615142822265625000e+01) (141, 1.50000000000000000000e+03) (142, 1.50000000000000000000e+03) (143, 1.50000000000000000000e+03) (144, 1.50000000000000000000e+03) (145, 1.50000000000000000000e+03) (146, 1.50000000000000000000e+03) (147, 6.34697326660156250000e+02) (148, -6.97235465049743652344e-01) (149, -1.79403856396675109863e-01) (150, -6.45134449005126953125e-01) (151, 8.41454118490219116211e-02) (152, -3.92752587795257568359e-01) (153, -4.98529344797134399414e-01) (154, -5.61544060707092285156e-01) (155, -8.73842239379882812500e+00) (156, -3.95892333984375000000e+02) (157, 1.50000000000000000000e+03) (158, 1.50000000000000000000e+03) (159, 1.50000000000000000000e+03) (160, 1.50000000000000000000e+03) (161, 1.50000000000000000000e+03) (162, 1.50000000000000000000e+03) (163, -1.49090917968750000000e+03) (164, -3.48271789550781250000e+02) (165, -1.92353129386901855469e-01) (166, -2.20619276165962219238e-01) (167, 2.93958872556686401367e-01) (168, -6.29759430885314941406e-01) (169, -4.22914534807205200195e-01) (170, -5.32244682312011718750e-01) (171, -2.31567363739013671875e+01) (172, -1.49991345214843750000e+03) (173, 1.50000000000000000000e+03) (174, 1.50000000000000000000e+03) (175, 1.50000000000000000000e+03) (176, 1.50000000000000000000e+03) (177, 1.50000000000000000000e+03) (178, 1.50000000000000000000e+03) (179, -6.14854125976562500000e+02) (180, -1.49999145507812500000e+03) (181, -2.44629159569740295410e-01) (182, 1.39379799365997314453e-01) (183, 2.45637238025665283203e-01) (184, -4.12885174155235290527e-02) (185, -2.11383596062660217285e-01) (186, -6.03664040565490722656e-01) (187, -1.42591882324218750000e+03) (188, 1.49976550292968750000e+03) (189, 1.50000000000000000000e+03) (190, 1.50000000000000000000e+03) (191, 1.50000000000000000000e+03) (192, 1.50000000000000000000e+03) (193, 1.50000000000000000000e+03) (194, 1.50000000000000000000e+03) (195, 4.57461944580078125000e+02) (196, -5.61421508789062500000e+01) (197, -1.50000000000000000000e+03) (198, -1.21208410644531250000e+03) (199, -1.23866355419158935547e+00) (200, -1.37109145522117614746e-01) (201, -1.92326363176107406616e-02) (202, -4.08041320800781250000e+02) (203, -1.49984338378906250000e+03) (204, -8.92233276367187500000e+00) (205, 1.50000000000000000000e+03) (206, 1.50000000000000000000e+03) (207, 1.50000000000000000000e+03) (208, 1.50000000000000000000e+03) (209, 1.50000000000000000000e+03) (210, 1.50000000000000000000e+03) (211, 1.50000000000000000000e+03) (212, 1.50000000000000000000e+03) (213, 1.50000000000000000000e+03) (214, -8.53715538978576660156e-02) (215, -4.11483533680438995361e-02) (216, 2.19375118613243103027e-02) (217, -8.55600967407226562500e+01) (218, -5.78403854370117187500e+00) (219, -1.52372622489929199219e+00) (220, 1.50000000000000000000e+03) (221, 1.50000000000000000000e+03) (222, 1.50000000000000000000e+03) (223, 1.50000000000000000000e+03) (224, 1.50000000000000000000e+03) (225, 1.50000000000000000000e+03) (226, 1.50000000000000000000e+03) (227, 1.50000000000000000000e+03) (228, 1.50000000000000000000e+03) (229, 1.50000000000000000000e+03) (230, 1.50000000000000000000e+03) (231, 1.50000000000000000000e+03) (232, 1.50000000000000000000e+03) (233, 1.50000000000000000000e+03) (234, 1.50000000000000000000e+03) (235, 1.50000000000000000000e+03) (236, 1.50000000000000000000e+03) (237, 1.50000000000000000000e+03) (238, 1.50000000000000000000e+03) (239, 1.50000000000000000000e+03) (240, 1.50000000000000000000e+03) (241, 1.50000000000000000000e+03) (242, 1.50000000000000000000e+03) (243, 1.50000000000000000000e+03) (244, 1.50000000000000000000e+03) (245, 1.50000000000000000000e+03) (246, 1.50000000000000000000e+03) (247, 1.50000000000000000000e+03) (248, 1.50000000000000000000e+03) (249, 1.50000000000000000000e+03) (250, 1.50000000000000000000e+03) (251, 1.50000000000000000000e+03) (252, 1.50000000000000000000e+03) (253, 1.50000000000000000000e+03) (254, 1.50000000000000000000e+03) (255, 1.50000000000000000000e+03) (256, -3.71010392904281616211e-01) (0, 1.50000000000000000000e+03) (1, 1.50000000000000000000e+03) (2, 1.50000000000000000000e+03) (3, 1.50000000000000000000e+03) (4, 1.50000000000000000000e+03) (5, 1.50000000000000000000e+03) (6, 1.50000000000000000000e+03) (7, 1.50000000000000000000e+03) (8, 1.50000000000000000000e+03) (9, 1.50000000000000000000e+03) (10, 1.50000000000000000000e+03) (11, 1.50000000000000000000e+03) (12, 1.50000000000000000000e+03) (13, 1.50000000000000000000e+03) (14, 1.50000000000000000000e+03) (15, 1.50000000000000000000e+03) (16, 1.50000000000000000000e+03) (17, 1.50000000000000000000e+03) (18, 1.50000000000000000000e+03) (19, 1.50000000000000000000e+03) (20, 1.50000000000000000000e+03) (21, 1.50000000000000000000e+03) (22, 1.50000000000000000000e+03) (23, 1.50000000000000000000e+03) (24, 1.50000000000000000000e+03) (25, 1.50000000000000000000e+03) (26, 1.50000000000000000000e+03) (27, 1.50000000000000000000e+03) (28, 1.50000000000000000000e+03) (29, 1.50000000000000000000e+03) (30, 1.50000000000000000000e+03) (31, 1.50000000000000000000e+03) (32, 1.50000000000000000000e+03) (33, 1.50000000000000000000e+03) (34, 1.50000000000000000000e+03) (35, 5.03447723388671875000e+01) (36, 1.50000000000000000000e+03) (37, 1.50000000000000000000e+03) (38, -1.50000000000000000000e+03) (39, 1.43075366210937500000e+03) (40, -1.50000000000000000000e+03) (41, -1.49619201660156250000e+03) (42, -1.46170690917968750000e+03) (43, 1.50000000000000000000e+03) (44, 1.50000000000000000000e+03) (45, 1.50000000000000000000e+03) (46, 1.50000000000000000000e+03) (47, 1.50000000000000000000e+03) (48, 1.50000000000000000000e+03) (49, 1.50000000000000000000e+03) (50, 1.50000000000000000000e+03) (51, -1.58933854103088378906e+00) (52, 3.83887577056884765625e+00) (53, 1.49996398925781250000e+03) (54, 1.83329429626464843750e+01) (55, 2.31583919525146484375e+01) (56, 1.23510375976562500000e+03) (57, 1.49999707031250000000e+03) (58, 1.49999792480468750000e+03) (59, 1.49989721679687500000e+03) (60, -4.82846307754516601562e+00) (61, 1.50000000000000000000e+03) (62, 1.50000000000000000000e+03) (63, 1.50000000000000000000e+03) (64, 1.50000000000000000000e+03) (65, 1.50000000000000000000e+03) (66, 1.50000000000000000000e+03) (67, -1.26169309020042419434e-01) (68, 1.07313126325607299805e-01) (69, 5.92228829860687255859e-01) (70, 1.87396183609962463379e-01) (71, -1.00324547290802001953e+00) (72, 1.30437120795249938965e-01) (73, 2.53608167171478271484e-01) (74, -1.22689712047576904297e+00) (75, 1.49990808105468750000e+03) (76, -5.97911977767944335938e+00) (77, 1.50000000000000000000e+03) (78, 1.50000000000000000000e+03) (79, 1.50000000000000000000e+03) (80, 1.50000000000000000000e+03) (81, 1.50000000000000000000e+03) (82, 1.50000000000000000000e+03) (83, -4.86557215452194213867e-01) (84, 2.54290670156478881836e-01) (85, 8.67656290531158447266e-01) (86, -4.62896049022674560547e-01) (87, -2.98075657337903976440e-02) (88, 3.14717471599578857422e-01) (89, 3.36147576570510864258e-01) (90, -8.06139647960662841797e-01) (91, 3.32586898803710937500e+01) (92, -9.89849686622619628906e-01) (93, 1.50000000000000000000e+03) (94, 1.50000000000000000000e+03) (95, 1.50000000000000000000e+03) (96, 1.50000000000000000000e+03) (97, 1.50000000000000000000e+03) (98, 1.50000000000000000000e+03) (99, -1.11645674705505371094e+00) (100, 4.43149469792842864990e-02) (101, 4.64227735996246337891e-01) (102, 2.53781825304031372070e-01) (103, 5.06617613136768341064e-02) (104, 8.99690855294466018677e-03) (105, 1.99537307024002075195e-01) (106, 1.01719641685485839844e+00) (107, 1.55402675271034240723e-01) (108, -7.73266196250915527344e-01) (109, 1.50000000000000000000e+03) (110, 1.50000000000000000000e+03) (111, 1.50000000000000000000e+03) (112, 1.50000000000000000000e+03) (113, 1.50000000000000000000e+03) (114, 1.50000000000000000000e+03) (115, -1.37572169303894042969e+00) (116, 7.65080153942108154297e-02) (117, 6.65899395942687988281e-01) (118, 2.28031492233276367188e+00) (119, 1.40014097094535827637e-01) (120, 1.21717505156993865967e-01) (121, 5.24030029773712158203e-01) (122, 4.46122765541076660156e-01) (123, -2.63589657843112945557e-02) (124, -9.43357086181640625000e+00) (125, 1.50000000000000000000e+03) (126, 1.50000000000000000000e+03) (127, 1.50000000000000000000e+03) (128, 1.50000000000000000000e+03) (129, 1.50000000000000000000e+03) (130, 1.50000000000000000000e+03) (131, -9.79396820068359375000e+00) (132, -1.25547940842807292938e-03) (133, 5.04951715469360351562e-01) (134, 1.65635454654693603516e+00) (135, 2.10175737738609313965e-02) (136, -1.98915991932153701782e-02) (137, 3.17903697490692138672e-01) (138, 2.67241090536117553711e-01) (139, 6.14522516727447509766e-01) (140, -2.70672702789306640625e+01) (141, 1.50000000000000000000e+03) (142, 1.50000000000000000000e+03) (143, 1.50000000000000000000e+03) (144, 1.50000000000000000000e+03) (145, 1.50000000000000000000e+03) (146, 1.50000000000000000000e+03) (147, -1.31343400478363037109e+00) (148, -3.02718877792358398438e-01) (149, -3.05354773998260498047e-01) (150, 4.26330536603927612305e-01) (151, 5.77222287654876708984e-01) (152, 6.23559892177581787109e-01) (153, 1.75786420702934265137e-01) (154, -3.11492662876844406128e-02) (155, 4.45864200592041015625e-01) (156, -3.83539619445800781250e+01) (157, 1.50000000000000000000e+03) (158, 1.50000000000000000000e+03) (159, 1.50000000000000000000e+03) (160, 1.50000000000000000000e+03) (161, 1.50000000000000000000e+03) (162, 1.50000000000000000000e+03) (163, -6.86257123947143554688e+00) (164, 4.55406188964843750000e-01) (165, -3.34533065557479858398e-01) (166, -1.19174733757972717285e-01) (167, 3.69233906269073486328e-01) (168, 4.61081385612487792969e-01) (169, 1.32689058780670166016e-01) (170, 1.49363780021667480469e+00) (171, 7.18809223175048828125e+00) (172, 2.56672477722167968750e+01) (173, 1.50000000000000000000e+03) (174, 1.50000000000000000000e+03) (175, 1.50000000000000000000e+03) (176, 1.50000000000000000000e+03) (177, 1.50000000000000000000e+03) (178, 1.50000000000000000000e+03) (179, -2.29963278770446777344e+00) (180, 6.25818133354187011719e-01) (181, 4.99378263950347900391e-01) (182, 1.85112845897674560547e+00) (183, 1.83517530560493469238e-01) (184, 5.49530275166034698486e-02) (185, 5.31812720000743865967e-02) (186, 2.52697968482971191406e+00) (187, 4.10587844848632812500e+01) (188, -3.74599876403808593750e+01) (189, 1.50000000000000000000e+03) (190, 1.50000000000000000000e+03) (191, 1.50000000000000000000e+03) (192, 1.50000000000000000000e+03) (193, 1.50000000000000000000e+03) (194, 1.50000000000000000000e+03) (195, -2.80477857589721679688e+00) (196, -8.09620678424835205078e-01) (197, 1.49769836425781250000e+03) (198, 1.49999719238281250000e+03) (199, 3.31887698173522949219e+00) (200, 9.91159081459045410156e-01) (201, 1.08207387924194335938e+01) (202, 1.49995849609375000000e+03) (203, 1.46921545410156250000e+03) (204, -1.46666845703125000000e+03) (205, 1.50000000000000000000e+03) (206, 1.50000000000000000000e+03) (207, 1.50000000000000000000e+03) (208, 1.50000000000000000000e+03) (209, 1.50000000000000000000e+03) (210, 1.50000000000000000000e+03) (211, 1.50000000000000000000e+03) (212, 1.50000000000000000000e+03) (213, 1.50000000000000000000e+03) (214, -5.73399047851562500000e+02) (215, -4.28627105712890625000e+02) (216, -1.13088928222656250000e+03) (217, -1.50000000000000000000e+03) (218, -1.31453430175781250000e+03) (219, 1.49999304199218750000e+03) (220, 1.50000000000000000000e+03) (221, 1.50000000000000000000e+03) (222, 1.50000000000000000000e+03) (223, 1.50000000000000000000e+03) (224, 1.50000000000000000000e+03) (225, 1.50000000000000000000e+03) (226, 1.50000000000000000000e+03) (227, 1.50000000000000000000e+03) (228, 1.50000000000000000000e+03) (229, 1.50000000000000000000e+03) (230, 1.50000000000000000000e+03) (231, 1.50000000000000000000e+03) (232, 1.50000000000000000000e+03) (233, 1.50000000000000000000e+03) (234, 1.50000000000000000000e+03) (235, 1.50000000000000000000e+03) (236, 1.50000000000000000000e+03) (237, 1.50000000000000000000e+03) (238, 1.50000000000000000000e+03) (239, 1.50000000000000000000e+03) (240, 1.50000000000000000000e+03) (241, 1.50000000000000000000e+03) (242, 1.50000000000000000000e+03) (243, 1.50000000000000000000e+03) (244, 1.50000000000000000000e+03) (245, 1.50000000000000000000e+03) (246, 1.50000000000000000000e+03) (247, 1.50000000000000000000e+03) (248, 1.50000000000000000000e+03) (249, 1.50000000000000000000e+03) (250, 1.50000000000000000000e+03) (251, 1.50000000000000000000e+03) (252, 1.50000000000000000000e+03) (253, 1.50000000000000000000e+03) (254, 1.50000000000000000000e+03) (255, 1.50000000000000000000e+03) (256, 3.08059722185134887695e-01) (0, 1.50000000000000000000e+03) (1, 1.50000000000000000000e+03) (2, 